{
 "config": {
  "learning_rate": 0.25,
  "momentum": 0.1,
  "structure_hidden_laters": [
   5,
   5
  ],
  "qty_states_in": 3,
  "qty_states_channel_out": 5,
  "qty_states_out": 4,
  "qty_time_cols": 5,
  "qty_lpfc_layers": 3,
  "qty_hidden_laters": 2,
  "qty_time_cols_neighbor_inputs": 2,
  "qty_recent_memory": 2
 },
 "mem_bkprops": [
  [
   [
    {
     "state": {
      "config": {
       "rnn_config": {
        "learning_rate": 0.25,
        "momentum": 0.1,
        "structure_hidden_laters": [
         5,
         5
        ],
        "qty_states_in": 3,
        "qty_states_channel_out": 5,
        "qty_states_out": 4,
        "qty_time_cols": 5,
        "qty_lpfc_layers": 3,
        "qty_hidden_laters": 2,
        "qty_time_cols_neighbor_inputs": 2,
        "qty_recent_memory": 2
       },
       "channel_set_index": 0,
       "channel_type": 0,
       "time_col_index": 0,
       "mem_bkprop_input_mappings": [
        {
         "channel_set_index": -1,
         "channel_type": 4,
         "time_col_index": 0
        },
        {
         "channel_set_index": -1,
         "channel_type": 4,
         "time_col_index": 1
        },
        {
         "channel_set_index": -1,
         "channel_type": 4,
         "time_col_index": 2
        },
        {
         "channel_set_index": 0,
         "channel_type": 6,
         "time_col_index": 0
        },
        {
         "channel_set_index": 0,
         "channel_type": 6,
         "time_col_index": 0
        }
       ],
       "mem_bkprop_input_cache": [
        [
         0.0,
         0.0,
         0.0
        ],
        [
         0.0,
         0.0,
         0.0
        ],
        [
         0.0,
         0.0,
         0.0
        ],
        [
         0.0,
         0.0,
         0.0,
         0.0,
         0.0
        ],
        [
         0.0,
         0.0,
         0.0,
         0.0,
         0.0
        ]
       ]
      },
      "recent_memory": [
       [
        0.0,
        0.0,
        0.0,
        0.0,
        0.0
       ],
       [
        0.0,
        0.0,
        0.0,
        0.0,
        0.0
       ]
      ],
      "bp_net": {
       "state": {
        "config": {
         "learning_rate": 0.25,
         "momentum": 0.1,
         "structure": [
          19,
          5,
          5,
          5
         ],
         "disable_bias": false
        },
        "calculated_error_latest": -1.0,
        "track_history": true,
        "weights": [
         [
          [
           0.14100000000000001,
           0.6639999999999999,
           0.42399999999999993,
           0.14100000000000001,
           -0.74
          ],
          [
           -0.267,
           -0.52,
           0.050999999999999934,
           -0.5660000000000001,
           -0.997
          ],
          [
           -0.43500000000000005,
           0.647,
           -0.11099999999999999,
           0.746,
           0.07200000000000006
          ],
          [
           -0.575,
           -0.947,
           -0.039000000000000035,
           -0.745,
           0.08200000000000007
          ],
          [
           -0.522,
           -0.353,
           0.15700000000000003,
           -0.128,
           -0.5569999999999999
          ],
          [
           -0.9390000000000001,
           0.20599999999999996,
           -0.633,
           0.3440000000000001,
           0.625
          ],
          [
           -0.5860000000000001,
           -0.049000000000000044,
           -0.8,
           0.8049999999999999,
           -0.528
          ],
          [
           -0.6579999999999999,
           0.4870000000000001,
           -0.29900000000000004,
           -0.962,
           -0.888
          ],
          [
           -0.511,
           0.6299999999999999,
           0.2549999999999999,
           0.748,
           -0.266
          ],
          [
           0.512,
           0.9730000000000001,
           -0.356,
           0.08200000000000007,
           -0.243
          ],
          [
           0.34299999999999997,
           -0.25,
           0.5489999999999999,
           -0.368,
           0.33699999999999997
          ],
          [
           0.5880000000000001,
           -0.21599999999999997,
           -0.17700000000000005,
           -0.32299999999999995,
           0.010999999999999899
          ],
          [
           -0.255,
           0.21700000000000008,
           0.06899999999999995,
           -0.21899999999999997,
           0.9750000000000001
          ],
          [
           -0.8,
           0.08899999999999997,
           -0.15400000000000003,
           0.6160000000000001,
           0.476
          ],
          [
           -0.594,
           -0.25,
           -0.639,
           0.359,
           -0.495
          ],
          [
           0.6499999999999999,
           0.08899999999999997,
           0.631,
           -0.879,
           -0.5449999999999999
          ],
          [
           -0.14500000000000002,
           0.7290000000000001,
           0.9610000000000001,
           0.18100000000000005,
           -0.893
          ],
          [
           -0.958,
           -0.919,
           -0.605,
           -0.401,
           0.4830000000000001
          ],
          [
           -0.696,
           0.687,
           -0.32499999999999996,
           0.242,
           -0.76
          ],
          [
           0.7669999999999999,
           -0.28200000000000003,
           0.040000000000000036,
           0.2230000000000001,
           0.837
          ]
         ],
         [
          [
           0.3700000000000001,
           -0.786,
           0.7989999999999999,
           -0.487,
           0.7410000000000001
          ],
          [
           -0.6719999999999999,
           0.556,
           -0.31000000000000005,
           0.8999999999999999,
           0.43799999999999994
          ],
          [
           -0.794,
           0.6459999999999999,
           0.30200000000000005,
           -0.862,
           0.252
          ],
          [
           -0.25,
           -0.53,
           0.21399999999999997,
           0.4159999999999999,
           0.927
          ],
          [
           0.909,
           0.72,
           0.6060000000000001,
           0.43100000000000005,
           -0.30600000000000005
          ],
          [
           -0.23099999999999998,
           0.08299999999999996,
           -0.6599999999999999,
           0.933,
           -0.581
          ]
         ],
         [
          [
           -0.10999999999999999,
           -0.854,
           0.05800000000000005,
           0.1299999999999999,
           0.17900000000000005
          ],
          [
           0.484,
           -0.371,
           0.98,
           0.30499999999999994,
           0.1459999999999999
          ],
          [
           -0.403,
           0.518,
           -0.595,
           -0.597,
           -0.07199999999999995
          ],
          [
           0.4790000000000001,
           0.07299999999999995,
           0.494,
           0.09200000000000008,
           -0.687
          ],
          [
           -0.24,
           0.1339999999999999,
           0.28,
           -0.733,
           -0.358
          ],
          [
           -0.14900000000000002,
           -0.010000000000000009,
           -0.269,
           -0.31399999999999995,
           0.3979999999999999
          ]
         ]
        ],
        "last_changes": [
         [
          [
           0.0,
           0.0,
           0.0,
           0.0,
           0.0
          ],
          [
           0.0,
           0.0,
           0.0,
           0.0,
           0.0
          ],
          [
           0.0,
           0.0,
           0.0,
           0.0,
           0.0
          ],
          [
           0.0,
           0.0,
           0.0,
           0.0,
           0.0
          ],
          [
           0.0,
           0.0,
           0.0,
           0.0,
           0.0
          ],
          [
           0.0,
           0.0,
           0.0,
           0.0,
           0.0
          ],
          [
           0.0,
           0.0,
           0.0,
           0.0,
           0.0
          ],
          [
           0.0,
           0.0,
           0.0,
           0.0,
           0.0
          ],
          [
           0.0,
           0.0,
           0.0,
           0.0,
           0.0
          ],
          [
           0.0,
           0.0,
           0.0,
           0.0,
           0.0
          ],
          [
           0.0,
           0.0,
           0.0,
           0.0,
           0.0
          ],
          [
           0.0,
           0.0,
           0.0,
           0.0,
           0.0
          ],
          [
           0.0,
           0.0,
           0.0,
           0.0,
           0.0
          ],
          [
           0.0,
           0.0,
           0.0,
           0.0,
           0.0
          ],
          [
           0.0,
           0.0,
           0.0,
           0.0,
           0.0
          ],
          [
           0.0,
           0.0,
           0.0,
           0.0,
           0.0
          ],
          [
           0.0,
           0.0,
           0.0,
           0.0,
           0.0
          ],
          [
           0.0,
           0.0,
           0.0,
           0.0,
           0.0
          ],
          [
           0.0,
           0.0,
           0.0,
           0.0,
           0.0
          ],
          [
           0.0,
           0.0,
           0.0,
           0.0,
           0.0
          ]
         ],
         [
          [
           0.0,
           0.0,
           0.0,
           0.0,
           0.0
          ],
          [
           0.0,
           0.0,
           0.0,
           0.0,
           0.0
          ],
          [
           0.0,
           0.0,
           0.0,
           0.0,
           0.0
          ],
          [
           0.0,
           0.0,
           0.0,
           0.0,
           0.0
          ],
          [
           0.0,
           0.0,
           0.0,
           0.0,
           0.0
          ],
          [
           0.0,
           0.0,
           0.0,
           0.0,
           0.0
          ]
         ],
         [
          [
           0.0,
           0.0,
           0.0,
           0.0,
           0.0
          ],
          [
           0.0,
           0.0,
           0.0,
           0.0,
           0.0
          ],
          [
           0.0,
           0.0,
           0.0,
           0.0,
           0.0
          ],
          [
           0.0,
           0.0,
           0.0,
           0.0,
           0.0
          ],
          [
           0.0,
           0.0,
           0.0,
           0.0,
           0.0
          ],
          [
           0.0,
           0.0,
           0.0,
           0.0,
           0.0
          ]
         ]
        ],
        "activation_nodes": [
         [
          1.0,
          1.0,
          1.0,
          1.0,
          1.0,
          1.0,
          1.0,
          1.0,
          1.0,
          1.0,
          1.0,
          1.0,
          1.0,
          1.0,
          1.0,
          1.0,
          1.0,
          1.0,
          1.0,
          1.0
         ],
         [
          1.0,
          1.0,
          1.0,
          1.0,
          1.0,
          1.0
         ],
         [
          1.0,
          1.0,
          1.0,
          1.0,
          1.0,
          1.0
         ],
         [
          1.0,
          1.0,
          1.0,
          1.0,
          1.0
         ]
        ],
        "deltas": [
         [
          0.0,
          0.0,
          0.0,
          0.0,
          0.0,
          0.0,
          0.0,
          0.0,
          0.0,
          0.0,
          0.0,
          0.0,
          0.0,
          0.0,
          0.0,
          0.0,
          0.0,
          0.0,
          0.0
         ],
         [
          0.0,
          0.0,
          0.0,
          0.0,
          0.0
         ],
         [
          0.0,
          0.0,
          0.0,
          0.0,
          0.0
         ],
         [
          0.0,
          0.0,
          0.0,
          0.0,
          0.0
         ]
        ],
        "input_deltas": [
         0.0,
         0.0,
         0.0,
         0.0,
         0.0,
         0.0,
         0.0,
         0.0,
         0.0,
         0.0,
         0.0,
         0.0,
         0.0,
         0.0,
         0.0,
         0.0,
         0.0,
         0.0,
         0.0
        ],
        "calculated_error_history": []
       }
      }
     }
    },
    {
     "state": {
      "config": {
       "rnn_config": {
        "learning_rate": 0.25,
        "momentum": 0.1,
        "structure_hidden_laters": [
         5,
         5
        ],
        "qty_states_in": 3,
        "qty_states_channel_out": 5,
        "qty_states_out": 4,
        "qty_time_cols": 5,
        "qty_lpfc_layers": 3,
        "qty_hidden_laters": 2,
        "qty_time_cols_neighbor_inputs": 2,
        "qty_recent_memory": 2
       },
       "channel_set_index": 0,
       "channel_type": 0,
       "time_col_index": 1,
       "mem_bkprop_input_mappings": [
        {
         "channel_set_index": -1,
         "channel_type": 4,
         "time_col_index": 0
        },
        {
         "channel_set_index": -1,
         "channel_type": 4,
         "time_col_index": 1
        },
        {
         "channel_set_index": -1,
         "channel_type": 4,
         "time_col_index": 2
        },
        {
         "channel_set_index": -1,
         "channel_type": 4,
         "time_col_index": 3
        },
        {
         "channel_set_index": 0,
         "channel_type": 6,
         "time_col_index": 1
        },
        {
         "channel_set_index": 0,
         "channel_type": 6,
         "time_col_index": 1
        }
       ],
       "mem_bkprop_input_cache": [
        [
         0.0,
         0.0,
         0.0
        ],
        [
         0.0,
         0.0,
         0.0
        ],
        [
         0.0,
         0.0,
         0.0
        ],
        [
         0.0,
         0.0,
         0.0
        ],
        [
         0.0,
         0.0,
         0.0,
         0.0,
         0.0
        ],
        [
         0.0,
         0.0,
         0.0,
         0.0,
         0.0
        ]
       ]
      },
      "recent_memory": [
       [
        0.0,
        0.0,
        0.0,
        0.0,
        0.0
       ],
       [
        0.0,
        0.0,
        0.0,
        0.0,
        0.0
       ]
      ],
      "bp_net": {
       "state": {
        "config": {
         "learning_rate": 0.25,
         "momentum": 0.1,
         "structure": [
          22,
          5,
          5,
          5
         ],
         "disable_bias": false
        },
        "calculated_error_latest": -1.0,
        "track_history": true,
        "weights": [
         [
          [
           -0.872,
           -0.32099999999999995,
           -0.255,
           0.6719999999999999,
           0.44399999999999995
          ],
          [
           -0.56,
           -0.17800000000000005,
           0.7689999999999999,
           0.6200000000000001,
           -0.476
          ],
          [
           0.42799999999999994,
           0.10000000000000009,
           -0.376,
           0.21900000000000008,
           -0.15600000000000003
          ],
          [
           0.815,
           -0.33599999999999997,
           -0.54,
           0.19500000000000006,
           0.49
          ],
          [
           -0.256,
           0.02299999999999991,
           -0.30400000000000005,
           0.671,
           0.10299999999999998
          ],
          [
           -0.766,
           -0.19899999999999995,
           -0.28600000000000003,
           -0.15500000000000003,
           -0.544
          ],
          [
           0.4830000000000001,
           0.11699999999999999,
           -0.92,
           -0.522,
           -0.567
          ],
          [
           -0.061000000000000054,
           -0.264,
           -0.41700000000000004,
           0.919,
           -0.6599999999999999
          ],
          [
           -0.44199999999999995,
           0.639,
           -0.869,
           0.605,
           0.32200000000000006
          ],
          [
           -0.704,
           -0.20399999999999996,
           0.988,
           0.3720000000000001,
           -0.773
          ],
          [
           0.762,
           0.2729999999999999,
           -0.972,
           0.42500000000000004,
           0.45100000000000007
          ],
          [
           -0.615,
           0.22799999999999998,
           -0.901,
           -0.6719999999999999,
           0.659
          ],
          [
           -0.472,
           0.19500000000000006,
           -0.06599999999999995,
           -0.679,
           0.5389999999999999
          ],
          [
           0.5069999999999999,
           -0.78,
           0.482,
           -0.08299999999999996,
           -0.5529999999999999
          ],
          [
           0.43700000000000006,
           -0.981,
           -0.947,
           -0.618,
           -0.56
          ],
          [
           -0.235,
           -0.41800000000000004,
           0.5529999999999999,
           -0.5349999999999999,
           0.7150000000000001
          ],
          [
           -0.32399999999999995,
           -0.649,
           0.07000000000000006,
           -0.28500000000000003,
           0.9490000000000001
          ],
          [
           -0.19299999999999995,
           0.45799999999999996,
           -0.21099999999999997,
           0.46399999999999997,
           -0.019000000000000017
          ],
          [
           0.718,
           0.08699999999999997,
           0.7030000000000001,
           -0.571,
           0.7130000000000001
          ],
          [
           -0.986,
           -0.893,
           -0.696,
           0.2250000000000001,
           0.558
          ],
          [
           -0.31499999999999995,
           0.052999999999999936,
           0.21999999999999997,
           0.42900000000000005,
           -0.958
          ],
          [
           0.2829999999999999,
           0.5369999999999999,
           0.952,
           -0.32599999999999996,
           -0.607
          ],
          [
           -0.21299999999999997,
           0.383,
           -0.504,
           -0.34099999999999997,
           -0.0010000000000000009
          ]
         ],
         [
          [
           -0.041000000000000036,
           0.1459999999999999,
           0.631,
           0.18700000000000006,
           -0.994
          ],
          [
           -0.8,
           -0.363,
           0.8799999999999999,
           0.07299999999999995,
           0.841
          ],
          [
           0.29400000000000004,
           0.08299999999999996,
           0.016000000000000014,
           0.32600000000000007,
           -0.836
          ],
          [
           -0.644,
           -0.967,
           0.56,
           -0.40800000000000003,
           -0.22799999999999998
          ],
          [
           0.984,
           -0.20099999999999996,
           -0.43400000000000005,
           0.09200000000000008,
           0.026999999999999913
          ],
          [
           0.6519999999999999,
           0.3779999999999999,
           -0.938,
           -0.5409999999999999,
           -0.538
          ]
         ],
         [
          [
           0.014000000000000012,
           -0.793,
           0.395,
           0.8740000000000001,
           0.7130000000000001
          ],
          [
           0.15599999999999992,
           -0.8180000000000001,
           -0.261,
           0.6819999999999999,
           -0.385
          ],
          [
           0.9139999999999999,
           -0.031000000000000028,
           0.6040000000000001,
           0.020000000000000018,
           -0.89
          ],
          [
           -0.03700000000000003,
           -0.09199999999999997,
           -0.921,
           -0.383,
           0.016999999999999904
          ],
          [
           0.266,
           -0.04700000000000004,
           0.7509999999999999,
           0.5489999999999999,
           -0.17800000000000005
          ],
          [
           -0.03600000000000003,
           -0.235,
           0.127,
           0.9319999999999999,
           -0.20499999999999996
          ]
         ]
        ],
        "last_changes": [
         [
          [
           0.0,
           0.0,
           0.0,
           0.0,
           0.0
          ],
          [
           0.0,
           0.0,
           0.0,
           0.0,
           0.0
          ],
          [
           0.0,
           0.0,
           0.0,
           0.0,
           0.0
          ],
          [
           0.0,
           0.0,
           0.0,
           0.0,
           0.0
          ],
          [
           0.0,
           0.0,
           0.0,
           0.0,
           0.0
          ],
          [
           0.0,
           0.0,
           0.0,
           0.0,
           0.0
          ],
          [
           0.0,
           0.0,
           0.0,
           0.0,
           0.0
          ],
          [
           0.0,
           0.0,
           0.0,
           0.0,
           0.0
          ],
          [
           0.0,
           0.0,
           0.0,
           0.0,
           0.0
          ],
          [
           0.0,
           0.0,
           0.0,
           0.0,
           0.0
          ],
          [
           0.0,
           0.0,
           0.0,
           0.0,
           0.0
          ],
          [
           0.0,
           0.0,
           0.0,
           0.0,
           0.0
          ],
          [
           0.0,
           0.0,
           0.0,
           0.0,
           0.0
          ],
          [
           0.0,
           0.0,
           0.0,
           0.0,
           0.0
          ],
          [
           0.0,
           0.0,
           0.0,
           0.0,
           0.0
          ],
          [
           0.0,
           0.0,
           0.0,
           0.0,
           0.0
          ],
          [
           0.0,
           0.0,
           0.0,
           0.0,
           0.0
          ],
          [
           0.0,
           0.0,
           0.0,
           0.0,
           0.0
          ],
          [
           0.0,
           0.0,
           0.0,
           0.0,
           0.0
          ],
          [
           0.0,
           0.0,
           0.0,
           0.0,
           0.0
          ],
          [
           0.0,
           0.0,
           0.0,
           0.0,
           0.0
          ],
          [
           0.0,
           0.0,
           0.0,
           0.0,
           0.0
          ],
          [
           0.0,
           0.0,
           0.0,
           0.0,
           0.0
          ]
         ],
         [
          [
           0.0,
           0.0,
           0.0,
           0.0,
           0.0
          ],
          [
           0.0,
           0.0,
           0.0,
           0.0,
           0.0
          ],
          [
           0.0,
           0.0,
           0.0,
           0.0,
           0.0
          ],
          [
           0.0,
           0.0,
           0.0,
           0.0,
           0.0
          ],
          [
           0.0,
           0.0,
           0.0,
           0.0,
           0.0
          ],
          [
           0.0,
           0.0,
           0.0,
           0.0,
           0.0
          ]
         ],
         [
          [
           0.0,
           0.0,
           0.0,
           0.0,
           0.0
          ],
          [
           0.0,
           0.0,
           0.0,
           0.0,
           0.0
          ],
          [
           0.0,
           0.0,
           0.0,
           0.0,
           0.0
          ],
          [
           0.0,
           0.0,
           0.0,
           0.0,
           0.0
          ],
          [
           0.0,
           0.0,
           0.0,
           0.0,
           0.0
          ],
          [
           0.0,
           0.0,
           0.0,
           0.0,
           0.0
          ]
         ]
        ],
        "activation_nodes": [
         [
          1.0,
          1.0,
          1.0,
          1.0,
          1.0,
          1.0,
          1.0,
          1.0,
          1.0,
          1.0,
          1.0,
          1.0,
          1.0,
          1.0,
          1.0,
          1.0,
          1.0,
          1.0,
          1.0,
          1.0,
          1.0,
          1.0,
          1.0
         ],
         [
          1.0,
          1.0,
          1.0,
          1.0,
          1.0,
          1.0
         ],
         [
          1.0,
          1.0,
          1.0,
          1.0,
          1.0,
          1.0
         ],
         [
          1.0,
          1.0,
          1.0,
          1.0,
          1.0
         ]
        ],
        "deltas": [
         [
          0.0,
          0.0,
          0.0,
          0.0,
          0.0,
          0.0,
          0.0,
          0.0,
          0.0,
          0.0,
          0.0,
          0.0,
          0.0,
          0.0,
          0.0,
          0.0,
          0.0,
          0.0,
          0.0,
          0.0,
          0.0,
          0.0
         ],
         [
          0.0,
          0.0,
          0.0,
          0.0,
          0.0
         ],
         [
          0.0,
          0.0,
          0.0,
          0.0,
          0.0
         ],
         [
          0.0,
          0.0,
          0.0,
          0.0,
          0.0
         ]
        ],
        "input_deltas": [
         0.0,
         0.0,
         0.0,
         0.0,
         0.0,
         0.0,
         0.0,
         0.0,
         0.0,
         0.0,
         0.0,
         0.0,
         0.0,
         0.0,
         0.0,
         0.0,
         0.0,
         0.0,
         0.0,
         0.0,
         0.0,
         0.0
        ],
        "calculated_error_history": []
       }
      }
     }
    },
    {
     "state": {
      "config": {
       "rnn_config": {
        "learning_rate": 0.25,
        "momentum": 0.1,
        "structure_hidden_laters": [
         5,
         5
        ],
        "qty_states_in": 3,
        "qty_states_channel_out": 5,
        "qty_states_out": 4,
        "qty_time_cols": 5,
        "qty_lpfc_layers": 3,
        "qty_hidden_laters": 2,
        "qty_time_cols_neighbor_inputs": 2,
        "qty_recent_memory": 2
       },
       "channel_set_index": 0,
       "channel_type": 0,
       "time_col_index": 2,
       "mem_bkprop_input_mappings": [
        {
         "channel_set_index": -1,
         "channel_type": 4,
         "time_col_index": 0
        },
        {
         "channel_set_index": -1,
         "channel_type": 4,
         "time_col_index": 1
        },
        {
         "channel_set_index": -1,
         "channel_type": 4,
         "time_col_index": 2
        },
        {
         "channel_set_index": -1,
         "channel_type": 4,
         "time_col_index": 3
        },
        {
         "channel_set_index": -1,
         "channel_type": 4,
         "time_col_index": 4
        },
        {
         "channel_set_index": 0,
         "channel_type": 6,
         "time_col_index": 2
        },
        {
         "channel_set_index": 0,
         "channel_type": 6,
         "time_col_index": 2
        }
       ],
       "mem_bkprop_input_cache": [
        [
         0.0,
         0.0,
         0.0
        ],
        [
         0.0,
         0.0,
         0.0
        ],
        [
         0.0,
         0.0,
         0.0
        ],
        [
         0.0,
         0.0,
         0.0
        ],
        [
         0.0,
         0.0,
         0.0
        ],
        [
         0.0,
         0.0,
         0.0,
         0.0,
         0.0
        ],
        [
         0.0,
         0.0,
         0.0,
         0.0,
         0.0
        ]
       ]
      },
      "recent_memory": [
       [
        0.0,
        0.0,
        0.0,
        0.0,
        0.0
       ],
       [
        0.0,
        0.0,
        0.0,
        0.0,
        0.0
       ]
      ],
      "bp_net": {
       "state": {
        "config": {
         "learning_rate": 0.25,
         "momentum": 0.1,
         "structure": [
          25,
          5,
          5,
          5
         ],
         "disable_bias": false
        },
        "calculated_error_latest": -1.0,
        "track_history": true,
        "weights": [
         [
          [
           -0.03500000000000003,
           -0.19099999999999995,
           -0.31000000000000005,
           0.637,
           0.706
          ],
          [
           0.15399999999999991,
           0.5940000000000001,
           -0.625,
           -0.242,
           0.937
          ],
          [
           0.5820000000000001,
           -0.804,
           0.9159999999999999,
           -0.84,
           0.673
          ],
          [
           0.33699999999999997,
           0.8540000000000001,
           -0.848,
           -0.598,
           -0.646
          ],
          [
           0.776,
           -0.762,
           -0.062000000000000055,
           0.43799999999999994,
           -0.5780000000000001
          ],
          [
           0.5820000000000001,
           0.5820000000000001,
           -0.01200000000000001,
           0.821,
           0.3500000000000001
          ],
          [
           0.03699999999999992,
           0.2789999999999999,
           -0.44499999999999995,
           0.7130000000000001,
           -0.65
          ],
          [
           -0.9339999999999999,
           -0.927,
           -0.5449999999999999,
           0.32000000000000006,
           0.639
          ],
          [
           -0.743,
           0.2549999999999999,
           0.839,
           0.528,
           0.958
          ],
          [
           0.7669999999999999,
           -0.785,
           0.8839999999999999,
           0.09099999999999997,
           0.8680000000000001
          ],
          [
           0.4690000000000001,
           -0.09199999999999997,
           -0.988,
           0.802,
           0.05899999999999994
          ],
          [
           0.7689999999999999,
           -0.542,
           -0.767,
           -0.5409999999999999,
           0.6579999999999999
          ],
          [
           0.2869999999999999,
           0.8049999999999999,
           0.3620000000000001,
           -0.786,
           0.5920000000000001
          ],
          [
           -0.729,
           0.10099999999999998,
           -0.32199999999999995,
           -0.655,
           0.508
          ],
          [
           0.16100000000000003,
           0.994,
           0.2609999999999999,
           0.377,
           -0.73
          ],
          [
           0.8160000000000001,
           -0.904,
           -0.729,
           -0.362,
           -0.607
          ],
          [
           0.22100000000000009,
           0.8779999999999999,
           0.2370000000000001,
           0.661,
           0.5249999999999999
          ],
          [
           0.7090000000000001,
           -0.6950000000000001,
           -0.953,
           -0.352,
           -0.528
          ],
          [
           0.14900000000000002,
           -0.10499999999999998,
           -0.945,
           0.7150000000000001,
           -0.736
          ],
          [
           0.42300000000000004,
           -0.895,
           -0.6599999999999999,
           0.71,
           0.33000000000000007
          ],
          [
           -0.5660000000000001,
           0.597,
           -0.31399999999999995,
           -0.5860000000000001,
           0.18900000000000006
          ],
          [
           0.6910000000000001,
           -0.5720000000000001,
           0.579,
           -0.44899999999999995,
           0.238
          ],
          [
           -0.16300000000000003,
           0.595,
           -0.12,
           0.7629999999999999,
           -0.52
          ],
          [
           0.365,
           -0.23099999999999998,
           0.8480000000000001,
           0.6699999999999999,
           -0.914
          ],
          [
           -0.651,
           0.3540000000000001,
           -0.46499999999999997,
           0.514,
           -0.976
          ],
          [
           0.405,
           0.05600000000000005,
           -0.868,
           -0.969,
           0.02200000000000002
          ]
         ],
         [
          [
           -0.039000000000000035,
           -0.31499999999999995,
           -0.963,
           0.3819999999999999,
           -0.18700000000000006
          ],
          [
           0.02200000000000002,
           0.07200000000000006,
           0.4850000000000001,
           -0.522,
           0.026999999999999913
          ],
          [
           -0.45199999999999996,
           0.45500000000000007,
           0.903,
           0.845,
           -0.698
          ],
          [
           0.9610000000000001,
           -0.20199999999999996,
           0.43799999999999994,
           0.871,
           -0.529
          ],
          [
           -0.010000000000000009,
           0.7250000000000001,
           -0.502,
           -0.654,
           0.050000000000000044
          ],
          [
           -0.743,
           0.30899999999999994,
           -0.489,
           0.909,
           -0.753
          ]
         ],
         [
          [
           -0.10799999999999998,
           -0.75,
           -0.795,
           -0.967,
           0.44100000000000006
          ],
          [
           -0.16400000000000003,
           -0.483,
           -0.861,
           0.20999999999999996,
           0.6819999999999999
          ],
          [
           -0.978,
           -0.5680000000000001,
           -0.45399999999999996,
           -0.062000000000000055,
           0.8540000000000001
          ],
          [
           -0.02200000000000002,
           0.11699999999999999,
           0.27,
           -0.653,
           0.05899999999999994
          ],
          [
           -0.604,
           -0.06899999999999995,
           0.1499999999999999,
           -0.01200000000000001,
           0.6000000000000001
          ],
          [
           0.2729999999999999,
           0.018999999999999906,
           -0.46699999999999997,
           0.776,
           -0.891
          ]
         ]
        ],
        "last_changes": [
         [
          [
           0.0,
           0.0,
           0.0,
           0.0,
           0.0
          ],
          [
           0.0,
           0.0,
           0.0,
           0.0,
           0.0
          ],
          [
           0.0,
           0.0,
           0.0,
           0.0,
           0.0
          ],
          [
           0.0,
           0.0,
           0.0,
           0.0,
           0.0
          ],
          [
           0.0,
           0.0,
           0.0,
           0.0,
           0.0
          ],
          [
           0.0,
           0.0,
           0.0,
           0.0,
           0.0
          ],
          [
           0.0,
           0.0,
           0.0,
           0.0,
           0.0
          ],
          [
           0.0,
           0.0,
           0.0,
           0.0,
           0.0
          ],
          [
           0.0,
           0.0,
           0.0,
           0.0,
           0.0
          ],
          [
           0.0,
           0.0,
           0.0,
           0.0,
           0.0
          ],
          [
           0.0,
           0.0,
           0.0,
           0.0,
           0.0
          ],
          [
           0.0,
           0.0,
           0.0,
           0.0,
           0.0
          ],
          [
           0.0,
           0.0,
           0.0,
           0.0,
           0.0
          ],
          [
           0.0,
           0.0,
           0.0,
           0.0,
           0.0
          ],
          [
           0.0,
           0.0,
           0.0,
           0.0,
           0.0
          ],
          [
           0.0,
           0.0,
           0.0,
           0.0,
           0.0
          ],
          [
           0.0,
           0.0,
           0.0,
           0.0,
           0.0
          ],
          [
           0.0,
           0.0,
           0.0,
           0.0,
           0.0
          ],
          [
           0.0,
           0.0,
           0.0,
           0.0,
           0.0
          ],
          [
           0.0,
           0.0,
           0.0,
           0.0,
           0.0
          ],
          [
           0.0,
           0.0,
           0.0,
           0.0,
           0.0
          ],
          [
           0.0,
           0.0,
           0.0,
           0.0,
           0.0
          ],
          [
           0.0,
           0.0,
           0.0,
           0.0,
           0.0
          ],
          [
           0.0,
           0.0,
           0.0,
           0.0,
           0.0
          ],
          [
           0.0,
           0.0,
           0.0,
           0.0,
           0.0
          ],
          [
           0.0,
           0.0,
           0.0,
           0.0,
           0.0
          ]
         ],
         [
          [
           0.0,
           0.0,
           0.0,
           0.0,
           0.0
          ],
          [
           0.0,
           0.0,
           0.0,
           0.0,
           0.0
          ],
          [
           0.0,
           0.0,
           0.0,
           0.0,
           0.0
          ],
          [
           0.0,
           0.0,
           0.0,
           0.0,
           0.0
          ],
          [
           0.0,
           0.0,
           0.0,
           0.0,
           0.0
          ],
          [
           0.0,
           0.0,
           0.0,
           0.0,
           0.0
          ]
         ],
         [
          [
           0.0,
           0.0,
           0.0,
           0.0,
           0.0
          ],
          [
           0.0,
           0.0,
           0.0,
           0.0,
           0.0
          ],
          [
           0.0,
           0.0,
           0.0,
           0.0,
           0.0
          ],
          [
           0.0,
           0.0,
           0.0,
           0.0,
           0.0
          ],
          [
           0.0,
           0.0,
           0.0,
           0.0,
           0.0
          ],
          [
           0.0,
           0.0,
           0.0,
           0.0,
           0.0
          ]
         ]
        ],
        "activation_nodes": [
         [
          1.0,
          1.0,
          1.0,
          1.0,
          1.0,
          1.0,
          1.0,
          1.0,
          1.0,
          1.0,
          1.0,
          1.0,
          1.0,
          1.0,
          1.0,
          1.0,
          1.0,
          1.0,
          1.0,
          1.0,
          1.0,
          1.0,
          1.0,
          1.0,
          1.0,
          1.0
         ],
         [
          1.0,
          1.0,
          1.0,
          1.0,
          1.0,
          1.0
         ],
         [
          1.0,
          1.0,
          1.0,
          1.0,
          1.0,
          1.0
         ],
         [
          1.0,
          1.0,
          1.0,
          1.0,
          1.0
         ]
        ],
        "deltas": [
         [
          0.0,
          0.0,
          0.0,
          0.0,
          0.0,
          0.0,
          0.0,
          0.0,
          0.0,
          0.0,
          0.0,
          0.0,
          0.0,
          0.0,
          0.0,
          0.0,
          0.0,
          0.0,
          0.0,
          0.0,
          0.0,
          0.0,
          0.0,
          0.0,
          0.0
         ],
         [
          0.0,
          0.0,
          0.0,
          0.0,
          0.0
         ],
         [
          0.0,
          0.0,
          0.0,
          0.0,
          0.0
         ],
         [
          0.0,
          0.0,
          0.0,
          0.0,
          0.0
         ]
        ],
        "input_deltas": [
         0.0,
         0.0,
         0.0,
         0.0,
         0.0,
         0.0,
         0.0,
         0.0,
         0.0,
         0.0,
         0.0,
         0.0,
         0.0,
         0.0,
         0.0,
         0.0,
         0.0,
         0.0,
         0.0,
         0.0,
         0.0,
         0.0,
         0.0,
         0.0,
         0.0
        ],
        "calculated_error_history": []
       }
      }
     }
    },
    {
     "state": {
      "config": {
       "rnn_config": {
        "learning_rate": 0.25,
        "momentum": 0.1,
        "structure_hidden_laters": [
         5,
         5
        ],
        "qty_states_in": 3,
        "qty_states_channel_out": 5,
        "qty_states_out": 4,
        "qty_time_cols": 5,
        "qty_lpfc_layers": 3,
        "qty_hidden_laters": 2,
        "qty_time_cols_neighbor_inputs": 2,
        "qty_recent_memory": 2
       },
       "channel_set_index": 0,
       "channel_type": 0,
       "time_col_index": 3,
       "mem_bkprop_input_mappings": [
        {
         "channel_set_index": -1,
         "channel_type": 4,
         "time_col_index": 1
        },
        {
         "channel_set_index": -1,
         "channel_type": 4,
         "time_col_index": 2
        },
        {
         "channel_set_index": -1,
         "channel_type": 4,
         "time_col_index": 3
        },
        {
         "channel_set_index": -1,
         "channel_type": 4,
         "time_col_index": 4
        },
        {
         "channel_set_index": 0,
         "channel_type": 6,
         "time_col_index": 3
        },
        {
         "channel_set_index": 0,
         "channel_type": 6,
         "time_col_index": 3
        }
       ],
       "mem_bkprop_input_cache": [
        [
         0.0,
         0.0,
         0.0
        ],
        [
         0.0,
         0.0,
         0.0
        ],
        [
         0.0,
         0.0,
         0.0
        ],
        [
         0.0,
         0.0,
         0.0
        ],
        [
         0.0,
         0.0,
         0.0,
         0.0,
         0.0
        ],
        [
         0.0,
         0.0,
         0.0,
         0.0,
         0.0
        ]
       ]
      },
      "recent_memory": [
       [
        0.0,
        0.0,
        0.0,
        0.0,
        0.0
       ],
       [
        0.0,
        0.0,
        0.0,
        0.0,
        0.0
       ]
      ],
      "bp_net": {
       "state": {
        "config": {
         "learning_rate": 0.25,
         "momentum": 0.1,
         "structure": [
          22,
          5,
          5,
          5
         ],
         "disable_bias": false
        },
        "calculated_error_latest": -1.0,
        "track_history": true,
        "weights": [
         [
          [
           -0.748,
           0.09200000000000008,
           0.901,
           0.482,
           -0.935
          ],
          [
           0.08600000000000008,
           0.32099999999999995,
           0.944,
           0.8220000000000001,
           -0.5700000000000001
          ],
          [
           0.040000000000000036,
           -0.251,
           0.5089999999999999,
           0.258,
           0.03400000000000003
          ],
          [
           0.5920000000000001,
           0.32099999999999995,
           0.004999999999999893,
           0.8480000000000001,
           0.732
          ],
          [
           0.605,
           -0.534,
           -0.5489999999999999,
           0.32699999999999996,
           -0.6779999999999999
          ],
          [
           -0.611,
           0.02299999999999991,
           -0.30300000000000005,
           0.7529999999999999,
           0.40700000000000003
          ],
          [
           0.732,
           -0.017000000000000015,
           0.09699999999999998,
           0.02499999999999991,
           -0.563
          ],
          [
           0.996,
           0.704,
           0.016000000000000014,
           -0.43400000000000005,
           0.3839999999999999
          ],
          [
           0.7230000000000001,
           0.5069999999999999,
           -0.959,
           0.32800000000000007,
           0.5880000000000001
          ],
          [
           -0.831,
           0.74,
           0.17300000000000004,
           0.34299999999999997,
           -0.575
          ],
          [
           0.30600000000000005,
           -0.492,
           0.16700000000000004,
           -0.735,
           -0.474
          ],
          [
           -0.5569999999999999,
           -0.729,
           0.8939999999999999,
           -0.019000000000000017,
           -0.5369999999999999
          ],
          [
           0.9510000000000001,
           0.18900000000000006,
           -0.14800000000000002,
           -0.779,
           0.54
          ],
          [
           0.5029999999999999,
           -0.7969999999999999,
           0.9710000000000001,
           -0.49,
           0.26
          ],
          [
           0.363,
           0.40900000000000003,
           -0.922,
           0.357,
           -0.667
          ],
          [
           0.43100000000000005,
           -0.948,
           0.7889999999999999,
           -0.07999999999999996,
           0.17100000000000004
          ],
          [
           -0.129,
           0.3740000000000001,
           0.18999999999999995,
           -0.644,
           -0.118
          ],
          [
           0.45300000000000007,
           -0.877,
           -0.01100000000000001,
           0.34099999999999997,
           0.6259999999999999
          ],
          [
           -0.784,
           -0.501,
           -0.238,
           -0.873,
           0.137
          ],
          [
           0.34099999999999997,
           -0.121,
           -0.837,
           0.41300000000000003,
           0.20900000000000007
          ],
          [
           -0.7090000000000001,
           0.20900000000000007,
           0.482,
           -0.5860000000000001,
           -0.538
          ],
          [
           0.19399999999999995,
           -0.08999999999999997,
           -0.43400000000000005,
           0.34099999999999997,
           -0.7010000000000001
          ],
          [
           -0.947,
           0.605,
           -0.928,
           0.7110000000000001,
           0.29400000000000004
          ]
         ],
         [
          [
           0.33899999999999997,
           -0.04800000000000004,
           0.03400000000000003,
           -0.18700000000000006,
           -0.845
          ],
          [
           0.41500000000000004,
           0.7430000000000001,
           0.5660000000000001,
           -0.18200000000000005,
           0.09899999999999998
          ],
          [
           0.962,
           0.964,
           -0.0030000000000000027,
           0.248,
           -0.985
          ],
          [
           0.734,
           0.552,
           -0.529,
           0.8819999999999999,
           0.839
          ],
          [
           -0.09999999999999998,
           0.7370000000000001,
           -0.09099999999999997,
           -0.41600000000000004,
           -0.516
          ],
          [
           0.052000000000000046,
           0.5489999999999999,
           -0.05700000000000005,
           -0.23399999999999999,
           -0.20099999999999996
          ]
         ],
         [
          [
           0.30299999999999994,
           -0.28400000000000003,
           -0.123,
           -0.14600000000000002,
           0.7150000000000001
          ],
          [
           -0.5409999999999999,
           -0.832,
           0.10299999999999998,
           -0.488,
           0.6950000000000001
          ],
          [
           0.5800000000000001,
           0.671,
           -0.25,
           0.4870000000000001,
           0.127
          ],
          [
           -0.32799999999999996,
           0.40900000000000003,
           0.2470000000000001,
           -0.33099999999999996,
           -0.887
          ],
          [
           0.1499999999999999,
           0.48,
           -0.598,
           0.855,
           0.07899999999999996
          ],
          [
           -0.913,
           -0.579,
           -0.644,
           -0.29800000000000004,
           -0.46499999999999997
          ]
         ]
        ],
        "last_changes": [
         [
          [
           0.0,
           0.0,
           0.0,
           0.0,
           0.0
          ],
          [
           0.0,
           0.0,
           0.0,
           0.0,
           0.0
          ],
          [
           0.0,
           0.0,
           0.0,
           0.0,
           0.0
          ],
          [
           0.0,
           0.0,
           0.0,
           0.0,
           0.0
          ],
          [
           0.0,
           0.0,
           0.0,
           0.0,
           0.0
          ],
          [
           0.0,
           0.0,
           0.0,
           0.0,
           0.0
          ],
          [
           0.0,
           0.0,
           0.0,
           0.0,
           0.0
          ],
          [
           0.0,
           0.0,
           0.0,
           0.0,
           0.0
          ],
          [
           0.0,
           0.0,
           0.0,
           0.0,
           0.0
          ],
          [
           0.0,
           0.0,
           0.0,
           0.0,
           0.0
          ],
          [
           0.0,
           0.0,
           0.0,
           0.0,
           0.0
          ],
          [
           0.0,
           0.0,
           0.0,
           0.0,
           0.0
          ],
          [
           0.0,
           0.0,
           0.0,
           0.0,
           0.0
          ],
          [
           0.0,
           0.0,
           0.0,
           0.0,
           0.0
          ],
          [
           0.0,
           0.0,
           0.0,
           0.0,
           0.0
          ],
          [
           0.0,
           0.0,
           0.0,
           0.0,
           0.0
          ],
          [
           0.0,
           0.0,
           0.0,
           0.0,
           0.0
          ],
          [
           0.0,
           0.0,
           0.0,
           0.0,
           0.0
          ],
          [
           0.0,
           0.0,
           0.0,
           0.0,
           0.0
          ],
          [
           0.0,
           0.0,
           0.0,
           0.0,
           0.0
          ],
          [
           0.0,
           0.0,
           0.0,
           0.0,
           0.0
          ],
          [
           0.0,
           0.0,
           0.0,
           0.0,
           0.0
          ],
          [
           0.0,
           0.0,
           0.0,
           0.0,
           0.0
          ]
         ],
         [
          [
           0.0,
           0.0,
           0.0,
           0.0,
           0.0
          ],
          [
           0.0,
           0.0,
           0.0,
           0.0,
           0.0
          ],
          [
           0.0,
           0.0,
           0.0,
           0.0,
           0.0
          ],
          [
           0.0,
           0.0,
           0.0,
           0.0,
           0.0
          ],
          [
           0.0,
           0.0,
           0.0,
           0.0,
           0.0
          ],
          [
           0.0,
           0.0,
           0.0,
           0.0,
           0.0
          ]
         ],
         [
          [
           0.0,
           0.0,
           0.0,
           0.0,
           0.0
          ],
          [
           0.0,
           0.0,
           0.0,
           0.0,
           0.0
          ],
          [
           0.0,
           0.0,
           0.0,
           0.0,
           0.0
          ],
          [
           0.0,
           0.0,
           0.0,
           0.0,
           0.0
          ],
          [
           0.0,
           0.0,
           0.0,
           0.0,
           0.0
          ],
          [
           0.0,
           0.0,
           0.0,
           0.0,
           0.0
          ]
         ]
        ],
        "activation_nodes": [
         [
          1.0,
          1.0,
          1.0,
          1.0,
          1.0,
          1.0,
          1.0,
          1.0,
          1.0,
          1.0,
          1.0,
          1.0,
          1.0,
          1.0,
          1.0,
          1.0,
          1.0,
          1.0,
          1.0,
          1.0,
          1.0,
          1.0,
          1.0
         ],
         [
          1.0,
          1.0,
          1.0,
          1.0,
          1.0,
          1.0
         ],
         [
          1.0,
          1.0,
          1.0,
          1.0,
          1.0,
          1.0
         ],
         [
          1.0,
          1.0,
          1.0,
          1.0,
          1.0
         ]
        ],
        "deltas": [
         [
          0.0,
          0.0,
          0.0,
          0.0,
          0.0,
          0.0,
          0.0,
          0.0,
          0.0,
          0.0,
          0.0,
          0.0,
          0.0,
          0.0,
          0.0,
          0.0,
          0.0,
          0.0,
          0.0,
          0.0,
          0.0,
          0.0
         ],
         [
          0.0,
          0.0,
          0.0,
          0.0,
          0.0
         ],
         [
          0.0,
          0.0,
          0.0,
          0.0,
          0.0
         ],
         [
          0.0,
          0.0,
          0.0,
          0.0,
          0.0
         ]
        ],
        "input_deltas": [
         0.0,
         0.0,
         0.0,
         0.0,
         0.0,
         0.0,
         0.0,
         0.0,
         0.0,
         0.0,
         0.0,
         0.0,
         0.0,
         0.0,
         0.0,
         0.0,
         0.0,
         0.0,
         0.0,
         0.0,
         0.0,
         0.0
        ],
        "calculated_error_history": []
       }
      }
     }
    },
    {
     "state": {
      "config": {
       "rnn_config": {
        "learning_rate": 0.25,
        "momentum": 0.1,
        "structure_hidden_laters": [
         5,
         5
        ],
        "qty_states_in": 3,
        "qty_states_channel_out": 5,
        "qty_states_out": 4,
        "qty_time_cols": 5,
        "qty_lpfc_layers": 3,
        "qty_hidden_laters": 2,
        "qty_time_cols_neighbor_inputs": 2,
        "qty_recent_memory": 2
       },
       "channel_set_index": 0,
       "channel_type": 0,
       "time_col_index": 4,
       "mem_bkprop_input_mappings": [
        {
         "channel_set_index": -1,
         "channel_type": 4,
         "time_col_index": 2
        },
        {
         "channel_set_index": -1,
         "channel_type": 4,
         "time_col_index": 3
        },
        {
         "channel_set_index": -1,
         "channel_type": 4,
         "time_col_index": 4
        },
        {
         "channel_set_index": 0,
         "channel_type": 6,
         "time_col_index": 4
        },
        {
         "channel_set_index": 0,
         "channel_type": 6,
         "time_col_index": 4
        }
       ],
       "mem_bkprop_input_cache": [
        [
         0.0,
         0.0,
         0.0
        ],
        [
         0.0,
         0.0,
         0.0
        ],
        [
         0.0,
         0.0,
         0.0
        ],
        [
         0.0,
         0.0,
         0.0,
         0.0,
         0.0
        ],
        [
         0.0,
         0.0,
         0.0,
         0.0,
         0.0
        ]
       ]
      },
      "recent_memory": [
       [
        0.0,
        0.0,
        0.0,
        0.0,
        0.0
       ],
       [
        0.0,
        0.0,
        0.0,
        0.0,
        0.0
       ]
      ],
      "bp_net": {
       "state": {
        "config": {
         "learning_rate": 0.25,
         "momentum": 0.1,
         "structure": [
          19,
          5,
          5,
          5
         ],
         "disable_bias": false
        },
        "calculated_error_latest": -1.0,
        "track_history": true,
        "weights": [
         [
          [
           -0.55,
           -0.33999999999999997,
           0.383,
           0.942,
           -0.39
          ],
          [
           0.09600000000000009,
           0.06699999999999995,
           0.008999999999999897,
           0.30299999999999994,
           0.45799999999999996
          ],
          [
           0.11299999999999999,
           0.17599999999999993,
           0.32299999999999995,
           -0.15100000000000002,
           0.5229999999999999
          ],
          [
           0.2849999999999999,
           -0.8049999999999999,
           -0.524,
           0.841,
           -0.08199999999999996
          ],
          [
           0.766,
           0.7549999999999999,
           -0.42500000000000004,
           0.9510000000000001,
           -0.368
          ],
          [
           0.69,
           0.5800000000000001,
           0.21300000000000008,
           0.40700000000000003,
           -0.966
          ],
          [
           -0.954,
           -0.995,
           -0.41300000000000003,
           0.611,
           0.722
          ],
          [
           0.12400000000000011,
           0.21599999999999997,
           0.397,
           0.32400000000000007,
           0.681
          ],
          [
           -0.907,
           0.29800000000000004,
           0.839,
           -0.866,
           -0.13
          ],
          [
           0.2569999999999999,
           -0.808,
           -0.17800000000000005,
           0.8360000000000001,
           -0.716
          ],
          [
           0.778,
           0.5740000000000001,
           0.732,
           -0.05400000000000005,
           -0.43500000000000005
          ],
          [
           0.18399999999999994,
           -0.18799999999999994,
           0.8819999999999999,
           0.6839999999999999,
           -0.757
          ],
          [
           -0.14300000000000002,
           -0.979,
           -0.72,
           -0.46399999999999997,
           0.2450000000000001
          ],
          [
           -0.09799999999999998,
           0.663,
           0.73,
           0.679,
           -0.16400000000000003
          ],
          [
           -0.512,
           0.20999999999999996,
           -0.732,
           0.833,
           0.9019999999999999
          ],
          [
           -0.475,
           0.601,
           0.909,
           -0.879,
           -0.45899999999999996
          ],
          [
           0.954,
           -0.792,
           -0.742,
           0.552,
           0.78
          ],
          [
           0.32899999999999996,
           0.9099999999999999,
           0.062000000000000055,
           -0.30100000000000005,
           0.3759999999999999
          ],
          [
           0.8420000000000001,
           -0.241,
           0.3999999999999999,
           0.29699999999999993,
           -0.21499999999999997
          ],
          [
           -0.5529999999999999,
           -0.42100000000000004,
           0.929,
           -0.998,
           -0.20299999999999996
          ]
         ],
         [
          [
           -0.812,
           -0.665,
           -0.646,
           -0.29100000000000004,
           -0.918
          ],
          [
           0.09299999999999997,
           -0.44999999999999996,
           0.597,
           -0.602,
           0.6990000000000001
          ],
          [
           -0.29700000000000004,
           -0.257,
           -0.273,
           0.879,
           0.607
          ],
          [
           0.3340000000000001,
           -0.948,
           0.367,
           0.2430000000000001,
           0.385
          ],
          [
           -0.729,
           -0.28,
           0.4670000000000001,
           0.593,
           -0.73
          ],
          [
           0.278,
           0.552,
           0.73,
           -0.10299999999999998,
           -0.41500000000000004
          ]
         ],
         [
          [
           0.44100000000000006,
           0.2450000000000001,
           -0.7130000000000001,
           -0.748,
           -0.6619999999999999
          ],
          [
           -0.17500000000000004,
           -0.857,
           -0.257,
           0.486,
           0.5189999999999999
          ],
          [
           0.274,
           0.43599999999999994,
           0.915,
           -0.753,
           0.7569999999999999
          ],
          [
           0.01200000000000001,
           0.7310000000000001,
           -0.722,
           -0.789,
           0.5429999999999999
          ],
          [
           0.052999999999999936,
           0.6120000000000001,
           0.7669999999999999,
           -0.0020000000000000018,
           0.756
          ],
          [
           0.738,
           -0.15600000000000003,
           0.4890000000000001,
           0.15500000000000003,
           -0.708
          ]
         ]
        ],
        "last_changes": [
         [
          [
           0.0,
           0.0,
           0.0,
           0.0,
           0.0
          ],
          [
           0.0,
           0.0,
           0.0,
           0.0,
           0.0
          ],
          [
           0.0,
           0.0,
           0.0,
           0.0,
           0.0
          ],
          [
           0.0,
           0.0,
           0.0,
           0.0,
           0.0
          ],
          [
           0.0,
           0.0,
           0.0,
           0.0,
           0.0
          ],
          [
           0.0,
           0.0,
           0.0,
           0.0,
           0.0
          ],
          [
           0.0,
           0.0,
           0.0,
           0.0,
           0.0
          ],
          [
           0.0,
           0.0,
           0.0,
           0.0,
           0.0
          ],
          [
           0.0,
           0.0,
           0.0,
           0.0,
           0.0
          ],
          [
           0.0,
           0.0,
           0.0,
           0.0,
           0.0
          ],
          [
           0.0,
           0.0,
           0.0,
           0.0,
           0.0
          ],
          [
           0.0,
           0.0,
           0.0,
           0.0,
           0.0
          ],
          [
           0.0,
           0.0,
           0.0,
           0.0,
           0.0
          ],
          [
           0.0,
           0.0,
           0.0,
           0.0,
           0.0
          ],
          [
           0.0,
           0.0,
           0.0,
           0.0,
           0.0
          ],
          [
           0.0,
           0.0,
           0.0,
           0.0,
           0.0
          ],
          [
           0.0,
           0.0,
           0.0,
           0.0,
           0.0
          ],
          [
           0.0,
           0.0,
           0.0,
           0.0,
           0.0
          ],
          [
           0.0,
           0.0,
           0.0,
           0.0,
           0.0
          ],
          [
           0.0,
           0.0,
           0.0,
           0.0,
           0.0
          ]
         ],
         [
          [
           0.0,
           0.0,
           0.0,
           0.0,
           0.0
          ],
          [
           0.0,
           0.0,
           0.0,
           0.0,
           0.0
          ],
          [
           0.0,
           0.0,
           0.0,
           0.0,
           0.0
          ],
          [
           0.0,
           0.0,
           0.0,
           0.0,
           0.0
          ],
          [
           0.0,
           0.0,
           0.0,
           0.0,
           0.0
          ],
          [
           0.0,
           0.0,
           0.0,
           0.0,
           0.0
          ]
         ],
         [
          [
           0.0,
           0.0,
           0.0,
           0.0,
           0.0
          ],
          [
           0.0,
           0.0,
           0.0,
           0.0,
           0.0
          ],
          [
           0.0,
           0.0,
           0.0,
           0.0,
           0.0
          ],
          [
           0.0,
           0.0,
           0.0,
           0.0,
           0.0
          ],
          [
           0.0,
           0.0,
           0.0,
           0.0,
           0.0
          ],
          [
           0.0,
           0.0,
           0.0,
           0.0,
           0.0
          ]
         ]
        ],
        "activation_nodes": [
         [
          1.0,
          1.0,
          1.0,
          1.0,
          1.0,
          1.0,
          1.0,
          1.0,
          1.0,
          1.0,
          1.0,
          1.0,
          1.0,
          1.0,
          1.0,
          1.0,
          1.0,
          1.0,
          1.0,
          1.0
         ],
         [
          1.0,
          1.0,
          1.0,
          1.0,
          1.0,
          1.0
         ],
         [
          1.0,
          1.0,
          1.0,
          1.0,
          1.0,
          1.0
         ],
         [
          1.0,
          1.0,
          1.0,
          1.0,
          1.0
         ]
        ],
        "deltas": [
         [
          0.0,
          0.0,
          0.0,
          0.0,
          0.0,
          0.0,
          0.0,
          0.0,
          0.0,
          0.0,
          0.0,
          0.0,
          0.0,
          0.0,
          0.0,
          0.0,
          0.0,
          0.0,
          0.0
         ],
         [
          0.0,
          0.0,
          0.0,
          0.0,
          0.0
         ],
         [
          0.0,
          0.0,
          0.0,
          0.0,
          0.0
         ],
         [
          0.0,
          0.0,
          0.0,
          0.0,
          0.0
         ]
        ],
        "input_deltas": [
         0.0,
         0.0,
         0.0,
         0.0,
         0.0,
         0.0,
         0.0,
         0.0,
         0.0,
         0.0,
         0.0,
         0.0,
         0.0,
         0.0,
         0.0,
         0.0,
         0.0,
         0.0,
         0.0
        ],
        "calculated_error_history": []
       }
      }
     }
    }
   ],
   [
    {
     "state": {
      "config": {
       "rnn_config": {
        "learning_rate": 0.25,
        "momentum": 0.1,
        "structure_hidden_laters": [
         5,
         5
        ],
        "qty_states_in": 3,
        "qty_states_channel_out": 5,
        "qty_states_out": 4,
        "qty_time_cols": 5,
        "qty_lpfc_layers": 3,
        "qty_hidden_laters": 2,
        "qty_time_cols_neighbor_inputs": 2,
        "qty_recent_memory": 2
       },
       "channel_set_index": 0,
       "channel_type": 1,
       "time_col_index": 0,
       "mem_bkprop_input_mappings": [
        {
         "channel_set_index": -1,
         "channel_type": 4,
         "time_col_index": 0
        },
        {
         "channel_set_index": 0,
         "channel_type": 6,
         "time_col_index": 0
        },
        {
         "channel_set_index": 0,
         "channel_type": 6,
         "time_col_index": 0
        }
       ],
       "mem_bkprop_input_cache": [
        [
         0.0,
         0.0,
         0.0
        ],
        [
         0.0,
         0.0,
         0.0,
         0.0,
         0.0
        ],
        [
         0.0,
         0.0,
         0.0,
         0.0,
         0.0
        ]
       ]
      },
      "recent_memory": [
       [
        0.0,
        0.0,
        0.0,
        0.0,
        0.0
       ],
       [
        0.0,
        0.0,
        0.0,
        0.0,
        0.0
       ]
      ],
      "bp_net": {
       "state": {
        "config": {
         "learning_rate": 0.25,
         "momentum": 0.1,
         "structure": [
          13,
          5,
          5,
          5
         ],
         "disable_bias": false
        },
        "calculated_error_latest": -1.0,
        "track_history": true,
        "weights": [
         [
          [
           0.33299999999999996,
           0.06699999999999995,
           0.6799999999999999,
           0.08899999999999997,
           0.9870000000000001
          ],
          [
           -0.979,
           -0.06399999999999995,
           -0.591,
           0.9239999999999999,
           0.31200000000000006
          ],
          [
           -0.362,
           -0.781,
           -0.03700000000000003,
           0.742,
           0.563
          ],
          [
           0.25,
           -0.10099999999999998,
           -0.487,
           0.577,
           0.3700000000000001
          ],
          [
           -0.5469999999999999,
           0.7909999999999999,
           0.5569999999999999,
           -0.369,
           0.014999999999999902
          ],
          [
           -0.581,
           0.7290000000000001,
           0.546,
           -0.6859999999999999,
           0.851
          ],
          [
           -0.03200000000000003,
           0.528,
           -0.31399999999999995,
           -0.06000000000000005,
           0.9490000000000001
          ],
          [
           0.4670000000000001,
           0.796,
           0.847,
           0.0009999999999998899,
           -0.765
          ],
          [
           -0.008000000000000007,
           0.782,
           0.020000000000000018,
           0.31099999999999994,
           -0.54
          ],
          [
           -0.21399999999999997,
           -0.43600000000000005,
           0.6439999999999999,
           -0.671,
           -0.03300000000000003
          ],
          [
           0.12400000000000011,
           0.4830000000000001,
           0.5880000000000001,
           0.11099999999999999,
           0.6379999999999999
          ],
          [
           -0.04500000000000004,
           -0.8069999999999999,
           0.601,
           -0.17700000000000005,
           0.266
          ],
          [
           -0.10099999999999998,
           -0.5900000000000001,
           0.5609999999999999,
           -0.42100000000000004,
           -0.942
          ],
          [
           0.2410000000000001,
           -0.06299999999999994,
           0.9990000000000001,
           -0.52,
           0.923
          ]
         ],
         [
          [
           0.367,
           0.9490000000000001,
           0.7829999999999999,
           0.488,
           0.14900000000000002
          ],
          [
           -0.014000000000000012,
           0.7330000000000001,
           0.3540000000000001,
           -0.04800000000000004,
           0.5469999999999999
          ],
          [
           0.03499999999999992,
           -0.581,
           0.4690000000000001,
           0.3480000000000001,
           -0.625
          ],
          [
           0.377,
           0.1439999999999999,
           0.7849999999999999,
           -0.54,
           -0.5609999999999999
          ],
          [
           0.8460000000000001,
           -0.6579999999999999,
           0.5860000000000001,
           -0.5860000000000001,
           -0.919
          ],
          [
           0.831,
           0.17199999999999993,
           -0.258,
           0.31800000000000006,
           0.3500000000000001
          ]
         ],
         [
          [
           0.1160000000000001,
           0.07899999999999996,
           0.849,
           0.6539999999999999,
           0.44999999999999996
          ],
          [
           -0.87,
           -0.07399999999999995,
           0.351,
           0.571,
           0.2869999999999999
          ],
          [
           0.7969999999999999,
           0.4610000000000001,
           -0.274,
           0.48,
           -0.33999999999999997
          ],
          [
           0.2250000000000001,
           -0.507,
           0.3340000000000001,
           -0.22299999999999998,
           0.43799999999999994
          ],
          [
           0.679,
           0.5820000000000001,
           0.9550000000000001,
           -0.55,
           -0.09499999999999997
          ],
          [
           0.2330000000000001,
           -0.19099999999999995,
           -0.563,
           -0.398,
           0.3480000000000001
          ]
         ]
        ],
        "last_changes": [
         [
          [
           0.0,
           0.0,
           0.0,
           0.0,
           0.0
          ],
          [
           0.0,
           0.0,
           0.0,
           0.0,
           0.0
          ],
          [
           0.0,
           0.0,
           0.0,
           0.0,
           0.0
          ],
          [
           0.0,
           0.0,
           0.0,
           0.0,
           0.0
          ],
          [
           0.0,
           0.0,
           0.0,
           0.0,
           0.0
          ],
          [
           0.0,
           0.0,
           0.0,
           0.0,
           0.0
          ],
          [
           0.0,
           0.0,
           0.0,
           0.0,
           0.0
          ],
          [
           0.0,
           0.0,
           0.0,
           0.0,
           0.0
          ],
          [
           0.0,
           0.0,
           0.0,
           0.0,
           0.0
          ],
          [
           0.0,
           0.0,
           0.0,
           0.0,
           0.0
          ],
          [
           0.0,
           0.0,
           0.0,
           0.0,
           0.0
          ],
          [
           0.0,
           0.0,
           0.0,
           0.0,
           0.0
          ],
          [
           0.0,
           0.0,
           0.0,
           0.0,
           0.0
          ],
          [
           0.0,
           0.0,
           0.0,
           0.0,
           0.0
          ]
         ],
         [
          [
           0.0,
           0.0,
           0.0,
           0.0,
           0.0
          ],
          [
           0.0,
           0.0,
           0.0,
           0.0,
           0.0
          ],
          [
           0.0,
           0.0,
           0.0,
           0.0,
           0.0
          ],
          [
           0.0,
           0.0,
           0.0,
           0.0,
           0.0
          ],
          [
           0.0,
           0.0,
           0.0,
           0.0,
           0.0
          ],
          [
           0.0,
           0.0,
           0.0,
           0.0,
           0.0
          ]
         ],
         [
          [
           0.0,
           0.0,
           0.0,
           0.0,
           0.0
          ],
          [
           0.0,
           0.0,
           0.0,
           0.0,
           0.0
          ],
          [
           0.0,
           0.0,
           0.0,
           0.0,
           0.0
          ],
          [
           0.0,
           0.0,
           0.0,
           0.0,
           0.0
          ],
          [
           0.0,
           0.0,
           0.0,
           0.0,
           0.0
          ],
          [
           0.0,
           0.0,
           0.0,
           0.0,
           0.0
          ]
         ]
        ],
        "activation_nodes": [
         [
          1.0,
          1.0,
          1.0,
          1.0,
          1.0,
          1.0,
          1.0,
          1.0,
          1.0,
          1.0,
          1.0,
          1.0,
          1.0,
          1.0
         ],
         [
          1.0,
          1.0,
          1.0,
          1.0,
          1.0,
          1.0
         ],
         [
          1.0,
          1.0,
          1.0,
          1.0,
          1.0,
          1.0
         ],
         [
          1.0,
          1.0,
          1.0,
          1.0,
          1.0
         ]
        ],
        "deltas": [
         [
          0.0,
          0.0,
          0.0,
          0.0,
          0.0,
          0.0,
          0.0,
          0.0,
          0.0,
          0.0,
          0.0,
          0.0,
          0.0
         ],
         [
          0.0,
          0.0,
          0.0,
          0.0,
          0.0
         ],
         [
          0.0,
          0.0,
          0.0,
          0.0,
          0.0
         ],
         [
          0.0,
          0.0,
          0.0,
          0.0,
          0.0
         ]
        ],
        "input_deltas": [
         0.0,
         0.0,
         0.0,
         0.0,
         0.0,
         0.0,
         0.0,
         0.0,
         0.0,
         0.0,
         0.0,
         0.0,
         0.0
        ],
        "calculated_error_history": []
       }
      }
     }
    },
    {
     "state": {
      "config": {
       "rnn_config": {
        "learning_rate": 0.25,
        "momentum": 0.1,
        "structure_hidden_laters": [
         5,
         5
        ],
        "qty_states_in": 3,
        "qty_states_channel_out": 5,
        "qty_states_out": 4,
        "qty_time_cols": 5,
        "qty_lpfc_layers": 3,
        "qty_hidden_laters": 2,
        "qty_time_cols_neighbor_inputs": 2,
        "qty_recent_memory": 2
       },
       "channel_set_index": 0,
       "channel_type": 1,
       "time_col_index": 1,
       "mem_bkprop_input_mappings": [
        {
         "channel_set_index": 0,
         "channel_type": 1,
         "time_col_index": 0
        },
        {
         "channel_set_index": -1,
         "channel_type": 4,
         "time_col_index": 1
        },
        {
         "channel_set_index": 0,
         "channel_type": 6,
         "time_col_index": 1
        },
        {
         "channel_set_index": 0,
         "channel_type": 6,
         "time_col_index": 1
        }
       ],
       "mem_bkprop_input_cache": [
        [
         0.0,
         0.0,
         0.0,
         0.0,
         0.0
        ],
        [
         0.0,
         0.0,
         0.0
        ],
        [
         0.0,
         0.0,
         0.0,
         0.0,
         0.0
        ],
        [
         0.0,
         0.0,
         0.0,
         0.0,
         0.0
        ]
       ]
      },
      "recent_memory": [
       [
        0.0,
        0.0,
        0.0,
        0.0,
        0.0
       ],
       [
        0.0,
        0.0,
        0.0,
        0.0,
        0.0
       ]
      ],
      "bp_net": {
       "state": {
        "config": {
         "learning_rate": 0.25,
         "momentum": 0.1,
         "structure": [
          18,
          5,
          5,
          5
         ],
         "disable_bias": false
        },
        "calculated_error_latest": -1.0,
        "track_history": true,
        "weights": [
         [
          [
           0.3959999999999999,
           0.8220000000000001,
           -0.794,
           -0.927,
           -0.401
          ],
          [
           -0.41800000000000004,
           0.19999999999999996,
           0.962,
           -0.16500000000000004,
           -0.993
          ],
          [
           0.2749999999999999,
           0.845,
           -0.344,
           0.10299999999999998,
           -0.238
          ],
          [
           -0.944,
           -0.952,
           -0.644,
           -0.5680000000000001,
           -0.018000000000000016
          ],
          [
           -0.646,
           0.038000000000000034,
           0.96,
           -0.6910000000000001,
           -0.648
          ],
          [
           0.73,
           -0.891,
           0.391,
           0.45500000000000007,
           0.3340000000000001
          ],
          [
           -0.28800000000000003,
           0.877,
           0.534,
           0.536,
           -0.355
          ],
          [
           -0.14800000000000002,
           -0.891,
           0.29800000000000004,
           0.2529999999999999,
           0.29899999999999993
          ],
          [
           -0.76,
           0.4670000000000001,
           0.30099999999999993,
           0.32000000000000006,
           0.605
          ],
          [
           -0.723,
           -0.36,
           -0.946,
           0.17700000000000005,
           -0.21199999999999997
          ],
          [
           0.33899999999999997,
           0.119,
           -0.363,
           0.1419999999999999,
           -0.09299999999999997
          ],
          [
           0.9450000000000001,
           0.401,
           -0.8029999999999999,
           -0.475,
           0.15999999999999992
          ],
          [
           0.7789999999999999,
           0.6559999999999999,
           0.18300000000000005,
           0.6990000000000001,
           -0.027000000000000024
          ],
          [
           0.8600000000000001,
           0.5800000000000001,
           0.879,
           0.514,
           -0.479
          ],
          [
           -0.959,
           -0.859,
           -0.878,
           0.585,
           0.41300000000000003
          ],
          [
           0.3680000000000001,
           0.766,
           0.9390000000000001,
           0.7869999999999999,
           -0.961
          ],
          [
           -0.5449999999999999,
           0.32000000000000006,
           -0.487,
           0.9470000000000001,
           0.944
          ],
          [
           -0.01200000000000001,
           0.472,
           0.821,
           0.3939999999999999,
           0.675
          ],
          [
           0.32600000000000007,
           0.09400000000000008,
           -0.43700000000000006,
           0.6439999999999999,
           0.9930000000000001
          ]
         ],
         [
          [
           -0.906,
           0.7110000000000001,
           0.06699999999999995,
           -0.5469999999999999,
           -0.08499999999999996
          ],
          [
           -0.402,
           0.5229999999999999,
           0.8660000000000001,
           0.2470000000000001,
           -0.795
          ],
          [
           0.752,
           0.06600000000000006,
           -0.862,
           -0.967,
           0.659
          ],
          [
           0.30299999999999994,
           0.712,
           -0.255,
           -0.245,
           0.6140000000000001
          ],
          [
           0.14900000000000002,
           0.6839999999999999,
           -0.18799999999999994,
           0.9259999999999999,
           0.875
          ],
          [
           -0.491,
           0.18300000000000005,
           0.839,
           0.954,
           -0.473
          ]
         ],
         [
          [
           -0.477,
           -0.912,
           0.129,
           -0.5349999999999999,
           -0.949
          ],
          [
           -0.731,
           0.04299999999999993,
           0.44500000000000006,
           -0.772,
           0.365
          ],
          [
           0.04800000000000004,
           0.734,
           -0.9299999999999999,
           -0.362,
           -0.08299999999999996
          ],
          [
           -0.743,
           0.81,
           0.06899999999999995,
           -0.33299999999999996,
           -0.863
          ],
          [
           0.6339999999999999,
           0.20900000000000007,
           0.17199999999999993,
           -0.30900000000000005,
           -0.30600000000000005
          ],
          [
           -0.22099999999999997,
           0.44599999999999995,
           -0.679,
           -0.601,
           -0.884
          ]
         ]
        ],
        "last_changes": [
         [
          [
           0.0,
           0.0,
           0.0,
           0.0,
           0.0
          ],
          [
           0.0,
           0.0,
           0.0,
           0.0,
           0.0
          ],
          [
           0.0,
           0.0,
           0.0,
           0.0,
           0.0
          ],
          [
           0.0,
           0.0,
           0.0,
           0.0,
           0.0
          ],
          [
           0.0,
           0.0,
           0.0,
           0.0,
           0.0
          ],
          [
           0.0,
           0.0,
           0.0,
           0.0,
           0.0
          ],
          [
           0.0,
           0.0,
           0.0,
           0.0,
           0.0
          ],
          [
           0.0,
           0.0,
           0.0,
           0.0,
           0.0
          ],
          [
           0.0,
           0.0,
           0.0,
           0.0,
           0.0
          ],
          [
           0.0,
           0.0,
           0.0,
           0.0,
           0.0
          ],
          [
           0.0,
           0.0,
           0.0,
           0.0,
           0.0
          ],
          [
           0.0,
           0.0,
           0.0,
           0.0,
           0.0
          ],
          [
           0.0,
           0.0,
           0.0,
           0.0,
           0.0
          ],
          [
           0.0,
           0.0,
           0.0,
           0.0,
           0.0
          ],
          [
           0.0,
           0.0,
           0.0,
           0.0,
           0.0
          ],
          [
           0.0,
           0.0,
           0.0,
           0.0,
           0.0
          ],
          [
           0.0,
           0.0,
           0.0,
           0.0,
           0.0
          ],
          [
           0.0,
           0.0,
           0.0,
           0.0,
           0.0
          ],
          [
           0.0,
           0.0,
           0.0,
           0.0,
           0.0
          ]
         ],
         [
          [
           0.0,
           0.0,
           0.0,
           0.0,
           0.0
          ],
          [
           0.0,
           0.0,
           0.0,
           0.0,
           0.0
          ],
          [
           0.0,
           0.0,
           0.0,
           0.0,
           0.0
          ],
          [
           0.0,
           0.0,
           0.0,
           0.0,
           0.0
          ],
          [
           0.0,
           0.0,
           0.0,
           0.0,
           0.0
          ],
          [
           0.0,
           0.0,
           0.0,
           0.0,
           0.0
          ]
         ],
         [
          [
           0.0,
           0.0,
           0.0,
           0.0,
           0.0
          ],
          [
           0.0,
           0.0,
           0.0,
           0.0,
           0.0
          ],
          [
           0.0,
           0.0,
           0.0,
           0.0,
           0.0
          ],
          [
           0.0,
           0.0,
           0.0,
           0.0,
           0.0
          ],
          [
           0.0,
           0.0,
           0.0,
           0.0,
           0.0
          ],
          [
           0.0,
           0.0,
           0.0,
           0.0,
           0.0
          ]
         ]
        ],
        "activation_nodes": [
         [
          1.0,
          1.0,
          1.0,
          1.0,
          1.0,
          1.0,
          1.0,
          1.0,
          1.0,
          1.0,
          1.0,
          1.0,
          1.0,
          1.0,
          1.0,
          1.0,
          1.0,
          1.0,
          1.0
         ],
         [
          1.0,
          1.0,
          1.0,
          1.0,
          1.0,
          1.0
         ],
         [
          1.0,
          1.0,
          1.0,
          1.0,
          1.0,
          1.0
         ],
         [
          1.0,
          1.0,
          1.0,
          1.0,
          1.0
         ]
        ],
        "deltas": [
         [
          0.0,
          0.0,
          0.0,
          0.0,
          0.0,
          0.0,
          0.0,
          0.0,
          0.0,
          0.0,
          0.0,
          0.0,
          0.0,
          0.0,
          0.0,
          0.0,
          0.0,
          0.0
         ],
         [
          0.0,
          0.0,
          0.0,
          0.0,
          0.0
         ],
         [
          0.0,
          0.0,
          0.0,
          0.0,
          0.0
         ],
         [
          0.0,
          0.0,
          0.0,
          0.0,
          0.0
         ]
        ],
        "input_deltas": [
         0.0,
         0.0,
         0.0,
         0.0,
         0.0,
         0.0,
         0.0,
         0.0,
         0.0,
         0.0,
         0.0,
         0.0,
         0.0,
         0.0,
         0.0,
         0.0,
         0.0,
         0.0
        ],
        "calculated_error_history": []
       }
      }
     }
    },
    {
     "state": {
      "config": {
       "rnn_config": {
        "learning_rate": 0.25,
        "momentum": 0.1,
        "structure_hidden_laters": [
         5,
         5
        ],
        "qty_states_in": 3,
        "qty_states_channel_out": 5,
        "qty_states_out": 4,
        "qty_time_cols": 5,
        "qty_lpfc_layers": 3,
        "qty_hidden_laters": 2,
        "qty_time_cols_neighbor_inputs": 2,
        "qty_recent_memory": 2
       },
       "channel_set_index": 0,
       "channel_type": 1,
       "time_col_index": 2,
       "mem_bkprop_input_mappings": [
        {
         "channel_set_index": 0,
         "channel_type": 1,
         "time_col_index": 0
        },
        {
         "channel_set_index": 0,
         "channel_type": 1,
         "time_col_index": 1
        },
        {
         "channel_set_index": -1,
         "channel_type": 4,
         "time_col_index": 2
        },
        {
         "channel_set_index": 0,
         "channel_type": 6,
         "time_col_index": 2
        },
        {
         "channel_set_index": 0,
         "channel_type": 6,
         "time_col_index": 2
        }
       ],
       "mem_bkprop_input_cache": [
        [
         0.0,
         0.0,
         0.0,
         0.0,
         0.0
        ],
        [
         0.0,
         0.0,
         0.0,
         0.0,
         0.0
        ],
        [
         0.0,
         0.0,
         0.0
        ],
        [
         0.0,
         0.0,
         0.0,
         0.0,
         0.0
        ],
        [
         0.0,
         0.0,
         0.0,
         0.0,
         0.0
        ]
       ]
      },
      "recent_memory": [
       [
        0.0,
        0.0,
        0.0,
        0.0,
        0.0
       ],
       [
        0.0,
        0.0,
        0.0,
        0.0,
        0.0
       ]
      ],
      "bp_net": {
       "state": {
        "config": {
         "learning_rate": 0.25,
         "momentum": 0.1,
         "structure": [
          23,
          5,
          5,
          5
         ],
         "disable_bias": false
        },
        "calculated_error_latest": -1.0,
        "track_history": true,
        "weights": [
         [
          [
           0.43199999999999994,
           -0.014000000000000012,
           -0.06799999999999995,
           0.3520000000000001,
           -0.32499999999999996
          ],
          [
           0.21599999999999997,
           -0.08199999999999996,
           0.673,
           0.879,
           -0.40800000000000003
          ],
          [
           -0.16700000000000004,
           0.5,
           0.8220000000000001,
           -0.29100000000000004,
           0.29699999999999993
          ],
          [
           0.1100000000000001,
           -0.897,
           0.7,
           -0.73,
           0.18999999999999995
          ],
          [
           -0.881,
           0.615,
           0.6619999999999999,
           -0.06999999999999995,
           -0.91
          ],
          [
           0.579,
           0.7789999999999999,
           -0.864,
           0.9099999999999999,
           -0.132
          ],
          [
           -0.844,
           0.3580000000000001,
           0.738,
           0.19199999999999995,
           -0.648
          ],
          [
           -0.009000000000000008,
           -0.26,
           -0.42600000000000005,
           0.4179999999999999,
           -0.766
          ],
          [
           -0.731,
           -0.363,
           -0.122,
           -0.28,
           -0.30000000000000004
          ],
          [
           -0.42900000000000005,
           -0.09199999999999997,
           -0.732,
           -0.050000000000000044,
           0.8640000000000001
          ],
          [
           0.611,
           -0.04800000000000004,
           0.821,
           0.18100000000000005,
           0.7170000000000001
          ],
          [
           -0.08999999999999997,
           -0.20599999999999996,
           -0.09399999999999997,
           -0.651,
           0.05600000000000005
          ],
          [
           0.006000000000000005,
           0.010000000000000009,
           -0.34199999999999997,
           0.645,
           0.849
          ],
          [
           0.016000000000000014,
           0.14500000000000002,
           0.97,
           0.2310000000000001,
           0.4750000000000001
          ],
          [
           -0.33999999999999997,
           -0.813,
           0.30400000000000005,
           -0.901,
           -0.08799999999999997
          ],
          [
           0.9339999999999999,
           0.125,
           0.04200000000000004,
           0.07400000000000007,
           -0.8029999999999999
          ],
          [
           0.599,
           0.831,
           0.9530000000000001,
           0.18399999999999994,
           0.665
          ],
          [
           -0.11699999999999999,
           0.010000000000000009,
           -0.831,
           0.6930000000000001,
           -0.915
          ],
          [
           0.5149999999999999,
           0.17500000000000004,
           0.355,
           -0.32999999999999996,
           0.8660000000000001
          ],
          [
           0.17599999999999993,
           -0.694,
           -0.951,
           -0.773,
           0.9630000000000001
          ],
          [
           -0.7969999999999999,
           -0.798,
           0.4119999999999999,
           0.7010000000000001,
           0.6539999999999999
          ],
          [
           -0.21199999999999997,
           0.8400000000000001,
           0.8340000000000001,
           -0.667,
           -0.27
          ],
          [
           0.722,
           -0.06799999999999995,
           0.399,
           0.72,
           -0.28500000000000003
          ],
          [
           -0.248,
           -0.506,
           -0.357,
           -0.37,
           0.972
          ]
         ],
         [
          [
           0.44500000000000006,
           -0.45499999999999996,
           0.5569999999999999,
           0.5569999999999999,
           0.532
          ],
          [
           0.3740000000000001,
           0.42999999999999994,
           -0.777,
           -0.0050000000000000044,
           -0.19699999999999995
          ],
          [
           -0.251,
           -0.21299999999999997,
           -0.534,
           -0.963,
           0.655
          ],
          [
           -0.474,
           0.2549999999999999,
           -0.21799999999999997,
           -0.812,
           -0.857
          ],
          [
           0.7210000000000001,
           -0.249,
           0.254,
           -0.25,
           -0.972
          ],
          [
           0.9039999999999999,
           -0.5900000000000001,
           0.4810000000000001,
           -0.382,
           0.2709999999999999
          ]
         ],
         [
          [
           -0.262,
           0.062000000000000055,
           -0.30500000000000005,
           -0.603,
           0.4910000000000001
          ],
          [
           0.21100000000000008,
           0.47,
           0.4099999999999999,
           0.889,
           0.03299999999999992
          ],
          [
           -0.876,
           0.522,
           0.97,
           -0.09399999999999997,
           0.7869999999999999
          ],
          [
           0.885,
           0.9119999999999999,
           -0.765,
           -0.245,
           -0.10999999999999999
          ],
          [
           -0.21499999999999997,
           -0.08799999999999997,
           -0.6779999999999999,
           0.15500000000000003,
           -0.134
          ],
          [
           0.4570000000000001,
           -0.829,
           0.3400000000000001,
           0.621,
           -0.277
          ]
         ]
        ],
        "last_changes": [
         [
          [
           0.0,
           0.0,
           0.0,
           0.0,
           0.0
          ],
          [
           0.0,
           0.0,
           0.0,
           0.0,
           0.0
          ],
          [
           0.0,
           0.0,
           0.0,
           0.0,
           0.0
          ],
          [
           0.0,
           0.0,
           0.0,
           0.0,
           0.0
          ],
          [
           0.0,
           0.0,
           0.0,
           0.0,
           0.0
          ],
          [
           0.0,
           0.0,
           0.0,
           0.0,
           0.0
          ],
          [
           0.0,
           0.0,
           0.0,
           0.0,
           0.0
          ],
          [
           0.0,
           0.0,
           0.0,
           0.0,
           0.0
          ],
          [
           0.0,
           0.0,
           0.0,
           0.0,
           0.0
          ],
          [
           0.0,
           0.0,
           0.0,
           0.0,
           0.0
          ],
          [
           0.0,
           0.0,
           0.0,
           0.0,
           0.0
          ],
          [
           0.0,
           0.0,
           0.0,
           0.0,
           0.0
          ],
          [
           0.0,
           0.0,
           0.0,
           0.0,
           0.0
          ],
          [
           0.0,
           0.0,
           0.0,
           0.0,
           0.0
          ],
          [
           0.0,
           0.0,
           0.0,
           0.0,
           0.0
          ],
          [
           0.0,
           0.0,
           0.0,
           0.0,
           0.0
          ],
          [
           0.0,
           0.0,
           0.0,
           0.0,
           0.0
          ],
          [
           0.0,
           0.0,
           0.0,
           0.0,
           0.0
          ],
          [
           0.0,
           0.0,
           0.0,
           0.0,
           0.0
          ],
          [
           0.0,
           0.0,
           0.0,
           0.0,
           0.0
          ],
          [
           0.0,
           0.0,
           0.0,
           0.0,
           0.0
          ],
          [
           0.0,
           0.0,
           0.0,
           0.0,
           0.0
          ],
          [
           0.0,
           0.0,
           0.0,
           0.0,
           0.0
          ],
          [
           0.0,
           0.0,
           0.0,
           0.0,
           0.0
          ]
         ],
         [
          [
           0.0,
           0.0,
           0.0,
           0.0,
           0.0
          ],
          [
           0.0,
           0.0,
           0.0,
           0.0,
           0.0
          ],
          [
           0.0,
           0.0,
           0.0,
           0.0,
           0.0
          ],
          [
           0.0,
           0.0,
           0.0,
           0.0,
           0.0
          ],
          [
           0.0,
           0.0,
           0.0,
           0.0,
           0.0
          ],
          [
           0.0,
           0.0,
           0.0,
           0.0,
           0.0
          ]
         ],
         [
          [
           0.0,
           0.0,
           0.0,
           0.0,
           0.0
          ],
          [
           0.0,
           0.0,
           0.0,
           0.0,
           0.0
          ],
          [
           0.0,
           0.0,
           0.0,
           0.0,
           0.0
          ],
          [
           0.0,
           0.0,
           0.0,
           0.0,
           0.0
          ],
          [
           0.0,
           0.0,
           0.0,
           0.0,
           0.0
          ],
          [
           0.0,
           0.0,
           0.0,
           0.0,
           0.0
          ]
         ]
        ],
        "activation_nodes": [
         [
          1.0,
          1.0,
          1.0,
          1.0,
          1.0,
          1.0,
          1.0,
          1.0,
          1.0,
          1.0,
          1.0,
          1.0,
          1.0,
          1.0,
          1.0,
          1.0,
          1.0,
          1.0,
          1.0,
          1.0,
          1.0,
          1.0,
          1.0,
          1.0
         ],
         [
          1.0,
          1.0,
          1.0,
          1.0,
          1.0,
          1.0
         ],
         [
          1.0,
          1.0,
