{
  "config": {
   "learning_rate": 0.25,
   "momentum": 0.1,
   "structure_hidden_laters": [
    5,
    5
   ],
   "qty_states_in": 3,
   "qty_states_hidden_out": 5,
   "qty_states_out": 4,
   "qty_time_cols": 5,
   "qty_lpfc_layers": 3,
   "qty_hidden_laters": 2,
   "qty_time_cols_neighbor_inputs": 2,
   "qty_recent_memory": 2
  },
  "nodes": [
   [
    [
     {
      "node_input_cache": [
       [
        0.0,
        0.0,
        0.0
       ],
       [
        0.0,
        0.0,
        0.0
       ],
       [
        0.0,
        0.0,
        0.0
       ],
       [
        0.0,
        0.0,
        0.0,
        0.0,
        0.0
       ],
       [
        0.0,
        0.0,
        0.0,
        0.0,
        0.0
       ]
      ],
      "bp_net": {
       "state": {
        "config": {
         "learning_rate": 0.25,
         "momentum": 0.1,
         "structure": [
          19,
          5,
          5,
          5
         ],
         "disable_bias": false
        },
        "calculated_error_latest": -1.0,
        "track_history": true,
        "weights": [
         [
          [
           0.5109999999999999,
           -0.628,
           0.744,
           -0.702,
           -0.531
          ],
          [
           -0.654,
           -0.916,
           0.268,
           0.9990000000000001,
           0.3600000000000001
          ],
          [
           0.552,
           0.2250000000000001,
           -0.031000000000000028,
           0.8380000000000001,
           0.01200000000000001
          ],
          [
           -0.891,
           -0.46199999999999997,
           0.575,
           -0.847,
           0.08499999999999996
          ],
          [
           0.3460000000000001,
           0.238,
           -0.929,
           0.016000000000000014,
           -0.522
          ],
          [
           -0.792,
           -0.528,
           -0.07899999999999996,
           0.79,
           0.8759999999999999
          ],
          [
           0.752,
           -0.621,
           -0.32999999999999996,
           0.381,
           0.06099999999999994
          ],
          [
           -0.896,
           -0.786,
           0.052999999999999936,
           0.6970000000000001,
           0.611
          ],
          [
           -0.776,
           0.3420000000000001,
           0.2230000000000001,
           0.698,
           -0.29700000000000004
          ],
          [
           -0.281,
           0.41100000000000003,
           0.03699999999999992,
           0.903,
           -0.5820000000000001
          ],
          [
           -0.558,
           0.716,
           0.829,
           0.7390000000000001,
           -0.365
          ],
          [
           -0.46299999999999997,
           0.2569999999999999,
           -0.31399999999999995,
           -0.29600000000000004,
           0.30099999999999993
          ],
          [
           0.2789999999999999,
           0.7789999999999999,
           -0.22799999999999998,
           -0.362,
           0.6839999999999999
          ],
          [
           0.16500000000000004,
           0.937,
           0.45199999999999996,
           -0.136,
           0.16799999999999993
          ],
          [
           0.8720000000000001,
           0.20100000000000007,
           -0.712,
           0.42100000000000004,
           -0.11599999999999999
          ],
          [
           0.6399999999999999,
           -0.768,
           0.19399999999999995,
           -0.20099999999999996,
           0.552
          ],
          [
           -0.14800000000000002,
           0.18399999999999994,
           0.5289999999999999,
           0.2430000000000001,
           -0.87
          ],
          [
           -0.979,
           0.2390000000000001,
           0.5289999999999999,
           0.9990000000000001,
           -0.593
          ],
          [
           -0.41300000000000003,
           0.276,
           0.7949999999999999,
           -0.873,
           -0.5329999999999999
          ],
          [
           0.6659999999999999,
           -0.34099999999999997,
           -0.06399999999999995,
           -0.42900000000000005,
           0.891
          ]
         ],
         [
          [
           0.7090000000000001,
           -0.43400000000000005,
           0.21599999999999997,
           -0.269,
           -0.655
          ],
          [
           0.8320000000000001,
           0.371,
           0.839,
           -0.365,
           0.10899999999999999
          ],
          [
           0.7190000000000001,
           0.5209999999999999,
           -0.248,
           -0.21899999999999997,
           0.9730000000000001
          ],
          [
           0.9950000000000001,
           0.7010000000000001,
           0.8620000000000001,
           0.673,
           0.587
          ],
          [
           -0.598,
           0.44999999999999996,
           0.393,
           -0.612,
           0.587
          ],
          [
           0.609,
           -0.953,
           -0.133,
           0.486,
           0.8600000000000001
          ]
         ],
         [
          [
           0.5149999999999999,
           0.2410000000000001,
           -0.134,
           -0.10699999999999998,
           0.1180000000000001
          ],
          [
           0.45500000000000007,
           -0.626,
           -0.274,
           -0.07999999999999996,
           -0.813
          ],
          [
           0.4119999999999999,
           0.399,
           0.20599999999999996,
           0.1060000000000001,
           0.956
          ],
          [
           -0.562,
           -0.655,
           -0.10199999999999998,
           0.125,
           0.9950000000000001
          ],
          [
           -0.01100000000000001,
           -0.34099999999999997,
           0.9390000000000001,
           -0.964,
           -0.795
          ],
          [
           -0.372,
           0.1439999999999999,
           0.8140000000000001,
           0.29899999999999993,
           -0.40800000000000003
          ]
         ]
        ],
        "last_changes": [
         [
          [
           0.0,
           0.0,
           0.0,
           0.0,
           0.0
          ],
          [
           0.0,
           0.0,
           0.0,
           0.0,
           0.0
          ],
          [
           0.0,
           0.0,
           0.0,
           0.0,
           0.0
          ],
          [
           0.0,
           0.0,
           0.0,
           0.0,
           0.0
          ],
          [
           0.0,
           0.0,
           0.0,
           0.0,
           0.0
          ],
          [
           0.0,
           0.0,
           0.0,
           0.0,
           0.0
          ],
          [
           0.0,
           0.0,
           0.0,
           0.0,
           0.0
          ],
          [
           0.0,
           0.0,
           0.0,
           0.0,
           0.0
          ],
          [
           0.0,
           0.0,
           0.0,
           0.0,
           0.0
          ],
          [
           0.0,
           0.0,
           0.0,
           0.0,
           0.0
          ],
          [
           0.0,
           0.0,
           0.0,
           0.0,
           0.0
          ],
          [
           0.0,
           0.0,
           0.0,
           0.0,
           0.0
          ],
          [
           0.0,
           0.0,
           0.0,
           0.0,
           0.0
          ],
          [
           0.0,
           0.0,
           0.0,
           0.0,
           0.0
          ],
          [
           0.0,
           0.0,
           0.0,
           0.0,
           0.0
          ],
          [
           0.0,
           0.0,
           0.0,
           0.0,
           0.0
          ],
          [
           0.0,
           0.0,
           0.0,
           0.0,
           0.0
          ],
          [
           0.0,
           0.0,
           0.0,
           0.0,
           0.0
          ],
          [
           0.0,
           0.0,
           0.0,
           0.0,
           0.0
          ],
          [
           0.0,
           0.0,
           0.0,
           0.0,
           0.0
          ]
         ],
         [
          [
           0.0,
           0.0,
           0.0,
           0.0,
           0.0
          ],
          [
           0.0,
           0.0,
           0.0,
           0.0,
           0.0
          ],
          [
           0.0,
           0.0,
           0.0,
           0.0,
           0.0
          ],
          [
           0.0,
           0.0,
           0.0,
           0.0,
           0.0
          ],
          [
           0.0,
           0.0,
           0.0,
           0.0,
           0.0
          ],
          [
           0.0,
           0.0,
           0.0,
           0.0,
           0.0
          ]
         ],
         [
          [
           0.0,
           0.0,
           0.0,
           0.0,
           0.0
          ],
          [
           0.0,
           0.0,
           0.0,
           0.0,
           0.0
          ],
          [
           0.0,
           0.0,
           0.0,
           0.0,
           0.0
          ],
          [
           0.0,
           0.0,
           0.0,
           0.0,
           0.0
          ],
          [
           0.0,
           0.0,
           0.0,
           0.0,
           0.0
          ],
          [
           0.0,
           0.0,
           0.0,
           0.0,
           0.0
          ]
         ]
        ],
        "activation_nodes": [
         [
          1.0,
          1.0,
          1.0,
          1.0,
          1.0,
          1.0,
          1.0,
          1.0,
          1.0,
          1.0,
          1.0,
          1.0,
          1.0,
          1.0,
          1.0,
          1.0,
          1.0,
          1.0,
          1.0,
          1.0
         ],
         [
          1.0,
          1.0,
          1.0,
          1.0,
          1.0,
          1.0
         ],
         [
          1.0,
          1.0,
          1.0,
          1.0,
          1.0,
          1.0
         ],
         [
          1.0,
          1.0,
          1.0,
          1.0,
          1.0
         ]
        ],
        "deltas": [
         [
          0.0,
          0.0,
          0.0,
          0.0,
          0.0,
          0.0,
          0.0,
          0.0,
          0.0,
          0.0,
          0.0,
          0.0,
          0.0,
          0.0,
          0.0,
          0.0,
          0.0,
          0.0,
          0.0
         ],
         [
          0.0,
          0.0,
          0.0,
          0.0,
          0.0
         ],
         [
          0.0,
          0.0,
          0.0,
          0.0,
          0.0
         ],
         [
          0.0,
          0.0,
          0.0,
          0.0,
          0.0
         ]
        ],
        "input_deltas": [
         0.0,
         0.0,
         0.0,
         0.0,
         0.0,
         0.0,
         0.0,
         0.0,
         0.0,
         0.0,
         0.0,
         0.0,
         0.0,
         0.0,
         0.0,
         0.0,
         0.0,
         0.0,
         0.0
        ],
        "calculated_error_history": []
       }
      },
      "rnn_config": {
       "learning_rate": 0.25,
       "momentum": 0.1,
       "structure_hidden_laters": [
        5,
        5
       ],
       "qty_states_in": 3,
       "qty_states_hidden_out": 5,
       "qty_states_out": 4,
       "qty_time_cols": 5,
       "qty_lpfc_layers": 3,
       "qty_hidden_laters": 2,
       "qty_time_cols_neighbor_inputs": 2,
       "qty_recent_memory": 2
      },
      "channel_set_index": 0,
      "channel_type": 0,
      "time_col_index": 0,
      "node_input_mappings": [
       {
        "channel_set_index": -1,
        "channel_type": 4,
        "time_col_index": 0
       },
       {
        "channel_set_index": -1,
        "channel_type": 4,
        "time_col_index": 1
       },
       {
        "channel_set_index": -1,
        "channel_type": 4,
        "time_col_index": 2
       },
       {
        "channel_set_index": 0,
        "channel_type": 6,
        "time_col_index": 0
       },
       {
        "channel_set_index": 0,
        "channel_type": 6,
        "time_col_index": 0
       }
      ]
     },
     {
      "node_input_cache": [
       [
        0.0,
        0.0,
        0.0
       ],
       [
        0.0,
        0.0,
        0.0
       ],
       [
        0.0,
        0.0,
        0.0
       ],
       [
        0.0,
        0.0,
        0.0
       ],
       [
        0.0,
        0.0,
        0.0,
        0.0,
        0.0
       ],
       [
        0.0,
        0.0,
        0.0,
        0.0,
        0.0
       ]
      ],
      "bp_net": {
       "state": {
        "config": {
         "learning_rate": 0.25,
         "momentum": 0.1,
         "structure": [
          22,
          5,
          5,
          5
         ],
         "disable_bias": false
        },
        "calculated_error_latest": -1.0,
        "track_history": true,
        "weights": [
         [
          [
           0.43199999999999994,
           0.22199999999999998,
           0.014999999999999902,
           -0.892,
           0.45399999999999996
          ],
          [
           -0.42100000000000004,
           0.062000000000000055,
           0.367,
           -0.10399999999999998,
           0.698
          ],
          [
           -0.051000000000000045,
           0.6319999999999999,
           -0.51,
           0.528,
           -0.729
          ],
          [
           0.34299999999999997,
           0.062000000000000055,
           0.3420000000000001,
           -0.504,
           0.21300000000000008
          ],
          [
           0.8959999999999999,
           0.5009999999999999,
           0.724,
           -0.363,
           -0.7170000000000001
          ],
          [
           0.8009999999999999,
           -0.91,
           0.7769999999999999,
           -0.241,
           0.867
          ],
          [
           0.873,
           -0.391,
           0.4610000000000001,
           0.4930000000000001,
           0.7689999999999999
          ],
          [
           0.3320000000000001,
           -0.5469999999999999,
           -0.29400000000000004,
           -0.473,
           -0.899
          ],
          [
           0.9990000000000001,
           -0.31200000000000006,
           -0.40800000000000003,
           0.351,
           -0.942
          ],
          [
           -0.972,
           -0.874,
           0.9590000000000001,
           -0.571,
           0.706
          ],
          [
           -0.781,
           0.9059999999999999,
           0.7829999999999999,
           -0.988,
           -0.971
          ],
          [
           0.2330000000000001,
           0.6970000000000001,
           0.7450000000000001,
           -0.389,
           0.21900000000000008
          ],
          [
           -0.31899999999999995,
           -0.869,
           0.11099999999999999,
           0.935,
           -0.4
          ],
          [
           -0.621,
           -0.669,
           -0.76,
           0.262,
           -0.85
          ],
          [
           0.15300000000000002,
           -0.025000000000000022,
           -0.383,
           -0.906,
           -0.794
          ],
          [
           0.6080000000000001,
           0.5960000000000001,
           0.10499999999999998,
           0.42700000000000005,
           -0.052000000000000046
          ],
          [
           0.792,
           -0.525,
           -0.518,
           0.8480000000000001,
           -0.16400000000000003
          ],
          [
           0.397,
           -0.893,
           0.2689999999999999,
           -0.20499999999999996,
           -0.473
          ],
          [
           -0.845,
           -0.7170000000000001,
           -0.34099999999999997,
           -0.651,
           -0.967
          ],
          [
           -0.522,
           0.32600000000000007,
           -0.87,
           -0.20699999999999996,
           0.42999999999999994
          ],
          [
           0.18999999999999995,
           0.502,
           -0.49,
           0.3640000000000001,
           0.2370000000000001
          ],
          [
           0.587,
           -0.863,
           -0.56,
           -0.29700000000000004,
           0.256
          ],
          [
           -0.614,
           0.6299999999999999,
           0.946,
           -0.635,
           -0.488
          ]
         ],
         [
          [
           -0.267,
           0.9810000000000001,
           0.968,
           0.841,
           -0.43300000000000005
          ],
          [
           -0.839,
           -0.974,
           -0.22999999999999998,
           -0.393,
           0.609
          ],
          [
           -0.83,
           -0.5429999999999999,
           -0.43899999999999995,
           0.403,
           0.09899999999999998
          ],
          [
           0.383,
           0.617,
           -0.33599999999999997,
           0.796,
           0.3360000000000001
          ],
          [
           0.905,
           -0.349,
           0.21700000000000008,
           0.589,
           -0.492
          ],
          [
           -0.625,
           -0.010000000000000009,
           0.393,
           -0.81,
           -0.018000000000000016
          ]
         ],
         [
          [
           -0.16100000000000003,
           0.4710000000000001,
           -0.7130000000000001,
           -0.373,
           -0.484
          ],
          [
           0.7330000000000001,
           0.07499999999999996,
           0.3460000000000001,
           -0.788,
           0.988
          ],
          [
           0.377,
           -0.262,
           0.21799999999999997,
           -0.08099999999999996,
           -0.06000000000000005
          ],
          [
           -0.614,
           0.05600000000000005,
           -0.844,
           -0.8200000000000001,
           -0.21999999999999997
          ],
          [
           0.784,
           0.5740000000000001,
           -0.8160000000000001,
           0.44799999999999995,
           -0.615
          ],
          [
           0.698,
           -0.39,
           -0.907,
           -0.22599999999999998,
           -0.865
          ]
         ]
        ],
        "last_changes": [
         [
          [
           0.0,
           0.0,
           0.0,
           0.0,
           0.0
          ],
          [
           0.0,
           0.0,
           0.0,
           0.0,
           0.0
          ],
          [
           0.0,
           0.0,
           0.0,
           0.0,
           0.0
          ],
          [
           0.0,
           0.0,
           0.0,
           0.0,
           0.0
          ],
          [
           0.0,
           0.0,
           0.0,
           0.0,
           0.0
          ],
          [
           0.0,
           0.0,
           0.0,
           0.0,
           0.0
          ],
          [
           0.0,
           0.0,
           0.0,
           0.0,
           0.0
          ],
          [
           0.0,
           0.0,
           0.0,
           0.0,
           0.0
          ],
          [
           0.0,
           0.0,
           0.0,
           0.0,
           0.0
          ],
          [
           0.0,
           0.0,
           0.0,
           0.0,
           0.0
          ],
          [
           0.0,
           0.0,
           0.0,
           0.0,
           0.0
          ],
          [
           0.0,
           0.0,
           0.0,
           0.0,
           0.0
          ],
          [
           0.0,
           0.0,
           0.0,
           0.0,
           0.0
          ],
          [
           0.0,
           0.0,
           0.0,
           0.0,
           0.0
          ],
          [
           0.0,
           0.0,
           0.0,
           0.0,
           0.0
          ],
          [
           0.0,
           0.0,
           0.0,
           0.0,
           0.0
          ],
          [
           0.0,
           0.0,
           0.0,
           0.0,
           0.0
          ],
          [
           0.0,
           0.0,
           0.0,
           0.0,
           0.0
          ],
          [
           0.0,
           0.0,
           0.0,
           0.0,
           0.0
          ],
          [
           0.0,
           0.0,
           0.0,
           0.0,
           0.0
          ],
          [
           0.0,
           0.0,
           0.0,
           0.0,
           0.0
          ],
          [
           0.0,
           0.0,
           0.0,
           0.0,
           0.0
          ],
          [
           0.0,
           0.0,
           0.0,
           0.0,
           0.0
          ]
         ],
         [
          [
           0.0,
           0.0,
           0.0,
           0.0,
           0.0
          ],
          [
           0.0,
           0.0,
           0.0,
           0.0,
           0.0
          ],
          [
           0.0,
           0.0,
           0.0,
           0.0,
           0.0
          ],
          [
           0.0,
           0.0,
           0.0,
           0.0,
           0.0
          ],
          [
           0.0,
           0.0,
           0.0,
           0.0,
           0.0
          ],
          [
           0.0,
           0.0,
           0.0,
           0.0,
           0.0
          ]
         ],
         [
          [
           0.0,
           0.0,
           0.0,
           0.0,
           0.0
          ],
          [
           0.0,
           0.0,
           0.0,
           0.0,
           0.0
          ],
          [
           0.0,
           0.0,
           0.0,
           0.0,
           0.0
          ],
          [
           0.0,
           0.0,
           0.0,
           0.0,
           0.0
          ],
          [
           0.0,
           0.0,
           0.0,
           0.0,
           0.0
          ],
          [
           0.0,
           0.0,
           0.0,
           0.0,
           0.0
          ]
         ]
        ],
        "activation_nodes": [
         [
          1.0,
          1.0,
          1.0,
          1.0,
          1.0,
          1.0,
          1.0,
          1.0,
          1.0,
          1.0,
          1.0,
          1.0,
          1.0,
          1.0,
          1.0,
          1.0,
          1.0,
          1.0,
          1.0,
          1.0,
          1.0,
          1.0,
          1.0
         ],
         [
          1.0,
          1.0,
          1.0,
          1.0,
          1.0,
          1.0
         ],
         [
          1.0,
          1.0,
          1.0,
          1.0,
          1.0,
          1.0
         ],
         [
          1.0,
          1.0,
          1.0,
          1.0,
          1.0
         ]
        ],
        "deltas": [
         [
          0.0,
          0.0,
          0.0,
          0.0,
          0.0,
          0.0,
          0.0,
          0.0,
          0.0,
          0.0,
          0.0,
          0.0,
          0.0,
          0.0,
          0.0,
          0.0,
          0.0,
          0.0,
          0.0,
          0.0,
          0.0,
          0.0
         ],
         [
          0.0,
          0.0,
          0.0,
          0.0,
          0.0
         ],
         [
          0.0,
          0.0,
          0.0,
          0.0,
          0.0
         ],
         [
          0.0,
          0.0,
          0.0,
          0.0,
          0.0
         ]
        ],
        "input_deltas": [
         0.0,
         0.0,
         0.0,
         0.0,
         0.0,
         0.0,
         0.0,
         0.0,
         0.0,
         0.0,
         0.0,
         0.0,
         0.0,
         0.0,
         0.0,
         0.0,
         0.0,
         0.0,
         0.0,
         0.0,
         0.0,
         0.0
        ],
        "calculated_error_history": []
       }
      },
      "rnn_config": {
       "learning_rate": 0.25,
       "momentum": 0.1,
       "structure_hidden_laters": [
        5,
        5
       ],
       "qty_states_in": 3,
       "qty_states_hidden_out": 5,
       "qty_states_out": 4,
       "qty_time_cols": 5,
       "qty_lpfc_layers": 3,
       "qty_hidden_laters": 2,
       "qty_time_cols_neighbor_inputs": 2,
       "qty_recent_memory": 2
      },
      "channel_set_index": 0,
      "channel_type": 0,
      "time_col_index": 1,
      "node_input_mappings": [
       {
        "channel_set_index": -1,
        "channel_type": 4,
        "time_col_index": 0
       },
       {
        "channel_set_index": -1,
        "channel_type": 4,
        "time_col_index": 1
       },
       {
        "channel_set_index": -1,
        "channel_type": 4,
        "time_col_index": 2
       },
       {
        "channel_set_index": -1,
        "channel_type": 4,
        "time_col_index": 3
       },
       {
        "channel_set_index": 0,
        "channel_type": 6,
        "time_col_index": 1
       },
       {
        "channel_set_index": 0,
        "channel_type": 6,
        "time_col_index": 1
       }
      ]
     },
     {
      "node_input_cache": [
       [
        0.0,
        0.0,
        0.0
       ],
       [
        0.0,
        0.0,
        0.0
       ],
       [
        0.0,
        0.0,
        0.0
       ],
       [
        0.0,
        0.0,
        0.0
       ],
       [
        0.0,
        0.0,
        0.0
       ],
       [
        0.0,
        0.0,
        0.0,
        0.0,
        0.0
       ],
       [
        0.0,
        0.0,
        0.0,
        0.0,
        0.0
       ]
      ],
      "bp_net": {
       "state": {
        "config": {
         "learning_rate": 0.25,
         "momentum": 0.1,
         "structure": [
          25,
          5,
          5,
          5
         ],
         "disable_bias": false
        },
        "calculated_error_latest": -1.0,
        "track_history": true,
        "weights": [
         [
          [
           -0.963,
           0.028999999999999915,
           -0.635,
           0.5840000000000001,
           0.661
          ],
          [
           0.7050000000000001,
           0.9930000000000001,
           -0.7969999999999999,
           0.9470000000000001,
           -0.961
          ],
          [
           0.47,
           0.7889999999999999,
           -0.81,
           0.21599999999999997,
           -0.351
          ],
          [
           0.42300000000000004,
           0.496,
           -0.15800000000000003,
           -0.5760000000000001,
           -0.575
          ],
          [
           -0.774,
           -0.482,
           0.7150000000000001,
           0.43100000000000005,
           0.5680000000000001
          ],
          [
           -0.5429999999999999,
           0.7989999999999999,
           -0.778,
           -0.06999999999999995,
           0.274
          ],
          [
           -0.838,
           -0.775,
           0.19500000000000006,
           -0.654,
           0.7889999999999999
          ],
          [
           0.8160000000000001,
           0.692,
           -0.30500000000000005,
           -0.45799999999999996,
           -0.30300000000000005
          ],
          [
           0.4059999999999999,
           -0.41500000000000004,
           0.569,
           0.19900000000000007,
           -0.45899999999999996
          ],
          [
           -0.397,
           -0.869,
           -0.006000000000000005,
           -0.252,
           -0.817
          ],
          [
           -0.5820000000000001,
           -0.796,
           0.742,
           0.21799999999999997,
           -0.31699999999999995
          ],
          [
           -0.273,
           -0.374,
           -0.397,
           -0.952,
           -0.273
          ],
          [
           -0.923,
           -0.6599999999999999,
           0.677,
           -0.983,
           0.4930000000000001
          ],
          [
           0.44100000000000006,
           0.758,
           0.40700000000000003,
           0.837,
           -0.051000000000000045
          ],
          [
           -0.255,
           0.21300000000000008,
           -0.46199999999999997,
           0.10400000000000009,
           -0.379
          ],
          [
           -0.861,
           0.9710000000000001,
           -0.33099999999999996,
           -0.0030000000000000027,
           -0.851
          ],
          [
           0.4630000000000001,
           0.8520000000000001,
           -0.966,
           0.30299999999999994,
           0.552
          ],
          [
           -0.09799999999999998,
           0.6200000000000001,
           0.972,
           0.9610000000000001,
           -0.406
          ],
          [
           -0.635,
           0.15900000000000003,
           -0.945,
           -0.7030000000000001,
           0.6419999999999999
          ],
          [
           0.15799999999999992,
           0.3959999999999999,
           0.42999999999999994,
           -0.894,
           -0.472
          ],
          [
           -0.06699999999999995,
           -0.729,
           -0.252,
           0.42100000000000004,
           0.16799999999999993
          ],
          [
           0.563,
           -0.947,
           0.121,
           -0.806,
           -0.14900000000000002
          ],
          [
           0.062000000000000055,
           -0.781,
           -0.512,
           0.127,
           0.552
          ],
          [
           -0.73,
           -0.881,
           -0.23399999999999999,
           0.847,
           -0.35
          ],
          [
           0.72,
           0.22599999999999998,
           0.379,
           -0.5409999999999999,
           -0.8240000000000001
          ],
          [
           0.40700000000000003,
           0.18199999999999994,
           0.4610000000000001,
           0.04699999999999993,
           0.0040000000000000036
          ]
         ],
         [
          [
           0.6759999999999999,
           -0.94,
           -0.591,
           0.76,
           0.4970000000000001
          ],
          [
           0.17300000000000004,
           -0.631,
           0.17500000000000004,
           -0.26,
           -0.783
          ],
          [
           0.9930000000000001,
           -0.5880000000000001,
           0.44799999999999995,
           0.9019999999999999,
           -0.915
          ],
          [
           0.657,
           0.5880000000000001,
           0.44700000000000006,
           0.3939999999999999,
           -0.97
          ],
          [
           -0.273,
           0.821,
           0.09200000000000008,
           -0.892,
           -0.5640000000000001
          ],
          [
           0.1180000000000001,
           0.4810000000000001,
           -0.09799999999999998,
           -0.05700000000000005,
           0.7989999999999999
          ]
         ],
         [
          [
           0.56,
           -0.7989999999999999,
           -0.6679999999999999,
           -0.16500000000000004,
           -0.379
          ],
          [
           0.5529999999999999,
           0.256,
           0.20599999999999996,
           0.3380000000000001,
           0.956
          ],
          [
           0.4650000000000001,
           -0.22699999999999998,
           0.244,
           0.8320000000000001,
           -0.733
          ],
          [
           -0.040000000000000036,
           0.395,
           -0.08399999999999996,
           0.53,
           0.5940000000000001
          ],
          [
           0.923,
           -0.596,
           0.655,
           -0.508,
           0.7909999999999999
          ],
          [
           0.2270000000000001,
           -0.926,
           -0.31899999999999995,
           -0.43700000000000006,
           0.31499999999999995
          ]
         ]
        ],
        "last_changes": [
         [
          [
           0.0,
           0.0,
           0.0,
           0.0,
           0.0
          ],
          [
           0.0,
           0.0,
           0.0,
           0.0,
           0.0
          ],
          [
           0.0,
           0.0,
           0.0,
           0.0,
           0.0
          ],
          [
           0.0,
           0.0,
           0.0,
           0.0,
           0.0
          ],
          [
           0.0,
           0.0,
           0.0,
           0.0,
           0.0
          ],
          [
           0.0,
           0.0,
           0.0,
           0.0,
           0.0
          ],
          [
           0.0,
           0.0,
           0.0,
           0.0,
           0.0
          ],
          [
           0.0,
           0.0,
           0.0,
           0.0,
           0.0
          ],
          [
           0.0,
           0.0,
           0.0,
           0.0,
           0.0
          ],
          [
           0.0,
           0.0,
           0.0,
           0.0,
           0.0
          ],
          [
           0.0,
           0.0,
           0.0,
           0.0,
           0.0
          ],
          [
           0.0,
           0.0,
           0.0,
           0.0,
           0.0
          ],
          [
           0.0,
           0.0,
           0.0,
           0.0,
           0.0
          ],
          [
           0.0,
           0.0,
           0.0,
           0.0,
           0.0
          ],
          [
           0.0,
           0.0,
           0.0,
           0.0,
           0.0
          ],
          [
           0.0,
           0.0,
           0.0,
           0.0,
           0.0
          ],
          [
           0.0,
           0.0,
           0.0,
           0.0,
           0.0
          ],
          [
           0.0,
           0.0,
           0.0,
           0.0,
           0.0
          ],
          [
           0.0,
           0.0,
           0.0,
           0.0,
           0.0
          ],
          [
           0.0,
           0.0,
           0.0,
           0.0,
           0.0
          ],
          [
           0.0,
           0.0,
           0.0,
           0.0,
           0.0
          ],
          [
           0.0,
           0.0,
           0.0,
           0.0,
           0.0
          ],
          [
           0.0,
           0.0,
           0.0,
           0.0,
           0.0
          ],
          [
           0.0,
           0.0,
           0.0,
           0.0,
           0.0
          ],
          [
           0.0,
           0.0,
           0.0,
           0.0,
           0.0
          ],
          [
           0.0,
           0.0,
           0.0,
           0.0,
           0.0
          ]
         ],
         [
          [
           0.0,
           0.0,
           0.0,
           0.0,
           0.0
          ],
          [
           0.0,
           0.0,
           0.0,
           0.0,
           0.0
          ],
          [
           0.0,
           0.0,
           0.0,
           0.0,
           0.0
          ],
          [
           0.0,
           0.0,
           0.0,
           0.0,
           0.0
          ],
          [
           0.0,
           0.0,
           0.0,
           0.0,
           0.0
          ],
          [
           0.0,
           0.0,
           0.0,
           0.0,
           0.0
          ]
         ],
         [
          [
           0.0,
           0.0,
           0.0,
           0.0,
           0.0
          ],
          [
           0.0,
           0.0,
           0.0,
           0.0,
           0.0
          ],
          [
           0.0,
           0.0,
           0.0,
           0.0,
           0.0
          ],
          [
           0.0,
           0.0,
           0.0,
           0.0,
           0.0
          ],
          [
           0.0,
           0.0,
           0.0,
           0.0,
           0.0
          ],
          [
           0.0,
           0.0,
           0.0,
           0.0,
           0.0
          ]
         ]
        ],
        "activation_nodes": [
         [
          1.0,
          1.0,
          1.0,
          1.0,
          1.0,
          1.0,
          1.0,
          1.0,
          1.0,
          1.0,
          1.0,
          1.0,
          1.0,
          1.0,
          1.0,
          1.0,
          1.0,
          1.0,
          1.0,
          1.0,
          1.0,
          1.0,
          1.0,
          1.0,
          1.0,
          1.0
         ],
         [
          1.0,
          1.0,
          1.0,
          1.0,
          1.0,
          1.0
         ],
         [
          1.0,
          1.0,
          1.0,
          1.0,
          1.0,
          1.0
         ],
         [
          1.0,
          1.0,
          1.0,
          1.0,
          1.0
         ]
        ],
        "deltas": [
         [
          0.0,
          0.0,
          0.0,
          0.0,
          0.0,
          0.0,
          0.0,
          0.0,
          0.0,
          0.0,
          0.0,
          0.0,
          0.0,
          0.0,
          0.0,
          0.0,
          0.0,
          0.0,
          0.0,
          0.0,
          0.0,
          0.0,
          0.0,
          0.0,
          0.0
         ],
         [
          0.0,
          0.0,
          0.0,
          0.0,
          0.0
         ],
         [
          0.0,
          0.0,
          0.0,
          0.0,
          0.0
         ],
         [
          0.0,
          0.0,
          0.0,
          0.0,
          0.0
         ]
        ],
        "input_deltas": [
         0.0,
         0.0,
         0.0,
         0.0,
         0.0,
         0.0,
         0.0,
         0.0,
         0.0,
         0.0,
         0.0,
         0.0,
         0.0,
         0.0,
         0.0,
         0.0,
         0.0,
         0.0,
         0.0,
         0.0,
         0.0,
         0.0,
         0.0,
         0.0,
         0.0
        ],
        "calculated_error_history": []
       }
      },
      "rnn_config": {
       "learning_rate": 0.25,
       "momentum": 0.1,
       "structure_hidden_laters": [
        5,
        5
       ],
       "qty_states_in": 3,
       "qty_states_hidden_out": 5,
       "qty_states_out": 4,
       "qty_time_cols": 5,
       "qty_lpfc_layers": 3,
       "qty_hidden_laters": 2,
       "qty_time_cols_neighbor_inputs": 2,
       "qty_recent_memory": 2
      },
      "channel_set_index": 0,
      "channel_type": 0,
      "time_col_index": 2,
      "node_input_mappings": [
       {
        "channel_set_index": -1,
        "channel_type": 4,
        "time_col_index": 0
       },
       {
        "channel_set_index": -1,
        "channel_type": 4,
        "time_col_index": 1
       },
       {
        "channel_set_index": -1,
        "channel_type": 4,
        "time_col_index": 2
       },
       {
        "channel_set_index": -1,
        "channel_type": 4,
        "time_col_index": 3
       },
       {
        "channel_set_index": -1,
        "channel_type": 4,
        "time_col_index": 4
       },
       {
        "channel_set_index": 0,
        "channel_type": 6,
        "time_col_index": 2
       },
       {
        "channel_set_index": 0,
        "channel_type": 6,
        "time_col_index": 2
       }
      ]
     },
     {
      "node_input_cache": [
       [
        0.0,
        0.0,
        0.0
       ],
       [
        0.0,
        0.0,
        0.0
       ],
       [
        0.0,
        0.0,
        0.0
       ],
       [
        0.0,
        0.0,
        0.0
       ],
       [
        0.0,
        0.0,
        0.0,
        0.0,
        0.0
       ],
       [
        0.0,
        0.0,
        0.0,
        0.0,
        0.0
       ]
      ],
      "bp_net": {
       "state": {
        "config": {
         "learning_rate": 0.25,
         "momentum": 0.1,
         "structure": [
          22,
          5,
          5,
          5
         ],
         "disable_bias": false
        },
        "calculated_error_latest": -1.0,
        "track_history": true,
        "weights": [
         [
          [
           -0.32999999999999996,
           -0.031000000000000028,
           0.7350000000000001,
           -0.41500000000000004,
           -0.42900000000000005
          ],
          [
           0.5880000000000001,
           -0.728,
           -0.10499999999999998,
           -0.597,
           -0.757
          ],
          [
           -0.876,
           0.371,
           -0.363,
           -0.906,
           0.6839999999999999
          ],
          [
           -0.503,
           -0.21799999999999997,
           -0.999,
           0.18599999999999994,
           -0.19299999999999995
          ],
          [
           0.4590000000000001,
           0.81,
           0.522,
           -0.645,
           0.1319999999999999
          ],
          [
           0.028000000000000025,
           0.5429999999999999,
           0.609,
           -0.359,
           0.375
          ],
          [
           0.8620000000000001,
           0.645,
           0.5680000000000001,
           -0.944,
           0.722
          ],
          [
           0.14300000000000002,
           0.9219999999999999,
           -0.475,
           0.3460000000000001,
           -0.605
          ],
          [
           -0.745,
           0.1200000000000001,
           -0.759,
           0.5,
           0.2230000000000001
          ],
          [
           -0.631,
           0.685,
           -0.32599999999999996,
           0.687,
           -0.542
          ],
          [
           0.1399999999999999,
           -0.737,
           0.3560000000000001,
           -0.242,
           -0.06999999999999995
          ],
          [
           -0.5409999999999999,
           -0.887,
           -0.121,
           -0.917,
           0.5
          ],
          [
           -0.134,
           -0.885,
           0.040000000000000036,
           0.16700000000000004,
           0.8819999999999999
          ],
          [
           -0.129,
           -0.135,
           -0.363,
           0.98,
           -0.11099999999999999
          ],
          [
           -0.45799999999999996,
           -0.733,
           0.1100000000000001,
           -0.842,
           0.6699999999999999
          ],
          [
           0.3839999999999999,
           0.891,
           -0.694,
           0.21799999999999997,
           -0.43999999999999995
          ],
          [
           0.496,
           0.9710000000000001,
           -0.526,
           -0.19599999999999995,
           0.7310000000000001
          ],
          [
           0.242,
           0.21199999999999997,
           -0.858,
           -0.812,
           -0.7110000000000001
          ],
          [
           -0.627,
           0.647,
           -0.07099999999999995,
           -0.986,
           0.522
          ],
          [
           -0.275,
           -0.728,
           0.42300000000000004,
           0.542,
           0.246
          ],
          [
           -0.612,
           -0.904,
           0.42999999999999994,
           -0.362,
           0.5940000000000001
          ],
          [
           0.9710000000000001,
           0.1060000000000001,
           0.3380000000000001,
           -0.30900000000000005,
           0.3879999999999999
          ],
          [
           -0.20799999999999996,
           -0.19199999999999995,
           0.07600000000000007,
           -0.642,
           -0.6679999999999999
          ]
         ],
         [
          [
           -0.917,
           -0.488,
           -0.0050000000000000044,
           -0.575,
           0.562
          ],
          [
           -0.15100000000000002,
           0.9550000000000001,
           -0.55,
           -0.473,
           0.756
          ],
          [
           -0.17200000000000004,
           -0.88,
           0.7,
           -0.07399999999999995,
           0.028000000000000025
          ],
          [
           0.7749999999999999,
           -0.248,
           0.8380000000000001,
           0.827,
           -0.512
          ],
          [
           0.127,
           0.903,
           0.04400000000000004,
           0.96,
           0.1359999999999999
          ],
          [
           -0.96,
           0.4079999999999999,
           0.52,
           0.6579999999999999,
           0.1419999999999999
          ]
         ],
         [
          [
           -0.624,
           0.6779999999999999,
           -0.028000000000000025,
           -0.267,
           0.8300000000000001
          ],
          [
           -0.804,
           0.6140000000000001,
           0.95,
           0.484,
           0.9650000000000001
          ],
          [
           0.804,
           -0.0010000000000000009,
           0.937,
           0.21999999999999997,
           0.2609999999999999
          ],
          [
           0.8580000000000001,
           0.581,
           -0.238,
           -0.5820000000000001,
           -0.595
          ],
          [
           0.5660000000000001,
           -0.17600000000000005,
           0.6779999999999999,
           -0.45499999999999996,
           -0.247
          ],
          [
           0.1200000000000001,
           -0.061000000000000054,
           0.4970000000000001,
           -0.534,
           -0.597
          ]
         ]
        ],
        "last_changes": [
         [
          [
           0.0,
           0.0,
           0.0,
           0.0,
           0.0
          ],
          [
           0.0,
           0.0,
           0.0,
           0.0,
           0.0
          ],
          [
           0.0,
           0.0,
           0.0,
           0.0,
           0.0
          ],
          [
           0.0,
           0.0,
           0.0,
           0.0,
           0.0
          ],
          [
           0.0,
           0.0,
           0.0,
           0.0,
           0.0
          ],
          [
           0.0,
           0.0,
           0.0,
           0.0,
           0.0
          ],
          [
           0.0,
           0.0,
           0.0,
           0.0,
           0.0
          ],
          [
           0.0,
           0.0,
           0.0,
           0.0,
           0.0
          ],
          [
           0.0,
           0.0,
           0.0,
           0.0,
           0.0
          ],
          [
           0.0,
           0.0,
           0.0,
           0.0,
           0.0
          ],
          [
           0.0,
           0.0,
           0.0,
           0.0,
           0.0
          ],
          [
           0.0,
           0.0,
           0.0,
           0.0,
           0.0
          ],
          [
           0.0,
           0.0,
           0.0,
           0.0,
           0.0
          ],
          [
           0.0,
           0.0,
           0.0,
           0.0,
           0.0
          ],
          [
           0.0,
           0.0,
           0.0,
           0.0,
           0.0
          ],
          [
           0.0,
           0.0,
           0.0,
           0.0,
           0.0
          ],
          [
           0.0,
           0.0,
           0.0,
           0.0,
           0.0
          ],
          [
           0.0,
           0.0,
           0.0,
           0.0,
           0.0
          ],
          [
           0.0,
           0.0,
           0.0,
           0.0,
           0.0
          ],
          [
           0.0,
           0.0,
           0.0,
           0.0,
           0.0
          ],
          [
           0.0,
           0.0,
           0.0,
           0.0,
           0.0
          ],
          [
           0.0,
           0.0,
           0.0,
           0.0,
           0.0
          ],
          [
           0.0,
           0.0,
           0.0,
           0.0,
           0.0
          ]
         ],
         [
          [
           0.0,
           0.0,
           0.0,
           0.0,
           0.0
          ],
          [
           0.0,
           0.0,
           0.0,
           0.0,
           0.0
          ],
          [
           0.0,
           0.0,
           0.0,
           0.0,
           0.0
          ],
          [
           0.0,
           0.0,
           0.0,
           0.0,
           0.0
          ],
          [
           0.0,
           0.0,
           0.0,
           0.0,
           0.0
          ],
          [
           0.0,
           0.0,
           0.0,
           0.0,
           0.0
          ]
         ],
         [
          [
           0.0,
           0.0,
           0.0,
           0.0,
           0.0
          ],
          [
           0.0,
           0.0,
           0.0,
           0.0,
           0.0
          ],
          [
           0.0,
           0.0,
           0.0,
           0.0,
           0.0
          ],
          [
           0.0,
           0.0,
           0.0,
           0.0,
           0.0
          ],
          [
           0.0,
           0.0,
           0.0,
           0.0,
           0.0
          ],
          [
           0.0,
           0.0,
           0.0,
           0.0,
           0.0
          ]
         ]
        ],
        "activation_nodes": [
         [
          1.0,
          1.0,
          1.0,
          1.0,
          1.0,
          1.0,
          1.0,
          1.0,
          1.0,
          1.0,
          1.0,
          1.0,
          1.0,
          1.0,
          1.0,
          1.0,
          1.0,
          1.0,
          1.0,
          1.0,
          1.0,
          1.0,
          1.0
         ],
         [
          1.0,
          1.0,
          1.0,
          1.0,
          1.0,
          1.0
         ],
         [
          1.0,
          1.0,
          1.0,
          1.0,
          1.0,
          1.0
         ],
         [
          1.0,
          1.0,
          1.0,
          1.0,
          1.0
         ]
        ],
        "deltas": [
         [
          0.0,
          0.0,
          0.0,
          0.0,
          0.0,
          0.0,
          0.0,
          0.0,
          0.0,
          0.0,
          0.0,
          0.0,
          0.0,
          0.0,
          0.0,
          0.0,
          0.0,
          0.0,
          0.0,
          0.0,
          0.0,
          0.0
         ],
         [
          0.0,
          0.0,
          0.0,
          0.0,
          0.0
         ],
         [
          0.0,
          0.0,
          0.0,
          0.0,
          0.0
         ],
         [
          0.0,
          0.0,
          0.0,
          0.0,
          0.0
         ]
        ],
        "input_deltas": [
         0.0,
         0.0,
         0.0,
         0.0,
         0.0,
         0.0,
         0.0,
         0.0,
         0.0,
         0.0,
         0.0,
         0.0,
         0.0,
         0.0,
         0.0,
         0.0,
         0.0,
         0.0,
         0.0,
         0.0,
         0.0,
         0.0
        ],
        "calculated_error_history": []
       }
      },
      "rnn_config": {
       "learning_rate": 0.25,
       "momentum": 0.1,
       "structure_hidden_laters": [
        5,
        5
       ],
       "qty_states_in": 3,
       "qty_states_hidden_out": 5,
       "qty_states_out": 4,
       "qty_time_cols": 5,
       "qty_lpfc_layers": 3,
       "qty_hidden_laters": 2,
       "qty_time_cols_neighbor_inputs": 2,
       "qty_recent_memory": 2
      },
      "channel_set_index": 0,
      "channel_type": 0,
      "time_col_index": 3,
      "node_input_mappings": [
       {
        "channel_set_index": -1,
        "channel_type": 4,
        "time_col_index": 1
       },
       {
        "channel_set_index": -1,
        "channel_type": 4,
        "time_col_index": 2
       },
       {
        "channel_set_index": -1,
        "channel_type": 4,
        "time_col_index": 3
       },
       {
        "channel_set_index": -1,
        "channel_type": 4,
        "time_col_index": 4
       },
       {
        "channel_set_index": 0,
        "channel_type": 6,
        "time_col_index": 3
       },
       {
        "channel_set_index": 0,
        "channel_type": 6,
        "time_col_index": 3
       }
      ]
     },
     {
      "node_input_cache": [
       [
        0.0,
        0.0,
        0.0
       ],
       [
        0.0,
        0.0,
        0.0
       ],
       [
        0.0,
        0.0,
        0.0
       ],
       [
        0.0,
        0.0,
        0.0,
        0.0,
        0.0
       ],
       [
        0.0,
        0.0,
        0.0,
        0.0,
        0.0
       ]
      ],
      "bp_net": {
       "state": {
        "config": {
         "learning_rate": 0.25,
         "momentum": 0.1,
         "structure": [
          19,
          5,
          5,
          5
         ],
         "disable_bias": false
        },
        "calculated_error_latest": -1.0,
        "track_history": true,
        "weights": [
         [
          [
           0.07699999999999996,
           0.45999999999999996,
           -0.6579999999999999,
           -0.879,
           0.496
          ],
          [
           -0.747,
           -0.42700000000000005,
           -0.385,
           -0.244,
           -0.479
          ],
          [
           0.863,
           -0.29700000000000004,
           0.4039999999999999,
           -0.8180000000000001,
           0.387
          ],
          [
           0.7110000000000001,
           0.04400000000000004,
           0.363,
           -0.05300000000000005,
           0.2849999999999999
          ],
          [
           0.8480000000000001,
           -0.44899999999999995,
           -0.03700000000000003,
           0.8720000000000001,
           -0.505
          ],
          [
           -0.25,
           0.728,
           -0.5349999999999999,
           -0.258,
           0.276
          ],
          [
           0.827,
           -0.634,
           0.02299999999999991,
           0.2649999999999999,
           -0.757
          ],
          [
           0.45300000000000007,
           -0.508,
           -0.889,
           -0.132,
           -0.644
          ],
          [
           -0.823,
           -0.597,
           -0.793,
           -0.33799999999999997,
           0.6220000000000001
          ],
          [
           -0.751,
           0.32899999999999996,
           0.20999999999999996,
           0.78,
           -0.28300000000000003
          ],
          [
           -0.25,
           0.9039999999999999,
           -0.5609999999999999,
           0.26,
           -0.9299999999999999
          ],
          [
           0.9490000000000001,
           -0.8009999999999999,
           0.544,
           0.96,
           0.736
          ],
          [
           -0.639,
           -0.14200000000000002,
           0.637,
           -0.18100000000000005,
           0.5760000000000001
          ],
          [
           -0.771,
           0.502,
           -0.16600000000000004,
           -0.608,
           0.4119999999999999
          ],
          [
           0.21500000000000008,
           -0.03200000000000003,
           0.593,
           -0.19699999999999995,
           -0.995
          ],
          [
           -0.714,
           -0.81,
           0.99,
           0.399,
           -0.11499999999999999
          ],
          [
           0.21500000000000008,
           -0.476,
           0.28200000000000003,
           -0.20499999999999996,
           0.1080000000000001
          ],
          [
           -0.007000000000000006,
           0.917,
           -0.10199999999999998,
           0.6379999999999999,
           0.2390000000000001
          ],
          [
           0.722,
           -0.905,
           -0.0030000000000000027,
           -0.5449999999999999,
           -0.571
          ],
          [
           0.33000000000000007,
           -0.236,
           -0.04500000000000004,
           -0.20599999999999996,
           0.8999999999999999
          ]
         ],
         [
          [
           -0.742,
           -0.915,
           0.264,
           -0.32699999999999996,
           -0.759
          ],
          [
           0.14700000000000002,
           -0.18100000000000005,
           -0.734,
           0.028999999999999915,
           -0.613
          ],
          [
           -0.258,
           0.661,
           0.9770000000000001,
           -0.554,
           -0.09899999999999998
          ],
          [
           -0.594,
           -0.43500000000000005,
           0.6060000000000001,
           0.0029999999999998916,
           0.917
          ],
          [
           -0.9319999999999999,
           0.45100000000000007,
           -0.61,
           -0.43200000000000005,
           -0.955
          ],
          [
           0.546,
           0.05400000000000005,
           0.9710000000000001,
           0.18999999999999995,
           0.10200000000000009
          ]
         ],
         [
          [
           0.7490000000000001,
           0.768,
           0.478,
           0.040999999999999925,
           0.647
          ],
          [
           0.05800000000000005,
           -0.30900000000000005,
           0.1279999999999999,
           0.33499999999999996,
           -0.41500000000000004
          ],
          [
           -0.6739999999999999,
           0.778,
           0.9770000000000001,
           0.371,
           0.752
          ],
          [
           -0.18600000000000005,
           -0.237,
           -0.31799999999999995,
           -0.849,
           0.038999999999999924
          ],
          [
           0.6459999999999999,
           -0.31999999999999995,
           0.677,
           0.46799999999999997,
           -0.272
          ],
          [
           0.379,
           -0.788,
           -0.46699999999999997,
           0.248,
           -0.571
          ]
         ]
        ],
        "last_changes": [
         [
          [
           0.0,
           0.0,
           0.0,
           0.0,
           0.0
          ],
          [
           0.0,
           0.0,
           0.0,
           0.0,
           0.0
          ],
          [
           0.0,
           0.0,
           0.0,
           0.0,
           0.0
          ],
          [
           0.0,
           0.0,
           0.0,
           0.0,
           0.0
          ],
          [
           0.0,
           0.0,
           0.0,
           0.0,
           0.0
          ],
          [
           0.0,
           0.0,
           0.0,
           0.0,
           0.0
          ],
          [
           0.0,
           0.0,
           0.0,
           0.0,
           0.0
          ],
          [
           0.0,
           0.0,
           0.0,
           0.0,
           0.0
          ],
          [
           0.0,
           0.0,
           0.0,
           0.0,
           0.0
          ],
          [
           0.0,
           0.0,
           0.0,
           0.0,
           0.0
          ],
          [
           0.0,
           0.0,
           0.0,
           0.0,
           0.0
          ],
          [
           0.0,
           0.0,
           0.0,
           0.0,
           0.0
          ],
          [
           0.0,
           0.0,
           0.0,
           0.0,
           0.0
          ],
          [
           0.0,
           0.0,
           0.0,
           0.0,
           0.0
          ],
          [
           0.0,
           0.0,
           0.0,
           0.0,
           0.0
          ],
          [
           0.0,
           0.0,
           0.0,
           0.0,
           0.0
          ],
          [
           0.0,
           0.0,
           0.0,
           0.0,
           0.0
          ],
          [
           0.0,
           0.0,
           0.0,
           0.0,
           0.0
          ],
          [
           0.0,
           0.0,
           0.0,
           0.0,
           0.0
          ],
          [
           0.0,
           0.0,
           0.0,
           0.0,
           0.0
          ]
         ],
         [
          [
           0.0,
           0.0,
           0.0,
           0.0,
           0.0
          ],
          [
           0.0,
           0.0,
           0.0,
           0.0,
           0.0
          ],
          [
           0.0,
           0.0,
           0.0,
           0.0,
           0.0
          ],
          [
           0.0,
           0.0,
           0.0,
           0.0,
           0.0
          ],
          [
           0.0,
           0.0,
           0.0,
           0.0,
           0.0
          ],
          [
           0.0,
           0.0,
           0.0,
           0.0,
           0.0
          ]
         ],
         [
          [
           0.0,
           0.0,
           0.0,
           0.0,
           0.0
          ],
          [
           0.0,
           0.0,
           0.0,
           0.0,
           0.0
          ],
          [
           0.0,
           0.0,
           0.0,
           0.0,
           0.0
          ],
          [
           0.0,
           0.0,
           0.0,
           0.0,
           0.0
          ],
          [
           0.0,
           0.0,
           0.0,
           0.0,
           0.0
          ],
          [
           0.0,
           0.0,
           0.0,
           0.0,
           0.0
          ]
         ]
        ],
        "activation_nodes": [
         [
          1.0,
          1.0,
          1.0,
          1.0,
          1.0,
          1.0,
          1.0,
          1.0,
          1.0,
          1.0,
          1.0,
          1.0,
          1.0,
          1.0,
          1.0,
          1.0,
          1.0,
          1.0,
          1.0,
          1.0
         ],
         [
          1.0,
          1.0,
          1.0,
          1.0,
          1.0,
          1.0
         ],
         [
          1.0,
          1.0,
          1.0,
          1.0,
          1.0,
          1.0
         ],
         [
          1.0,
          1.0,
          1.0,
          1.0,
          1.0
         ]
        ],
        "deltas": [
         [
          0.0,
          0.0,
          0.0,
          0.0,
          0.0,
          0.0,
          0.0,
          0.0,
          0.0,
          0.0,
          0.0,
          0.0,
          0.0,
          0.0,
          0.0,
          0.0,
          0.0,
          0.0,
          0.0
         ],
         [
          0.0,
          0.0,
          0.0,
          0.0,
          0.0
         ],
         [
          0.0,
          0.0,
          0.0,
          0.0,
          0.0
         ],
         [
          0.0,
          0.0,
          0.0,
          0.0,
          0.0
         ]
        ],
        "input_deltas": [
         0.0,
         0.0,
         0.0,
         0.0,
         0.0,
         0.0,
         0.0,
         0.0,
         0.0,
         0.0,
         0.0,
         0.0,
         0.0,
         0.0,
         0.0,
         0.0,
         0.0,
         0.0,
         0.0
        ],
        "calculated_error_history": []
       }
      },
      "rnn_config": {
       "learning_rate": 0.25,
       "momentum": 0.1,
       "structure_hidden_laters": [
        5,
        5
       ],
       "qty_states_in": 3,
       "qty_states_hidden_out": 5,
       "qty_states_out": 4,
       "qty_time_cols": 5,
       "qty_lpfc_layers": 3,
       "qty_hidden_laters": 2,
       "qty_time_cols_neighbor_inputs": 2,
       "qty_recent_memory": 2
      },
      "channel_set_index": 0,
      "channel_type": 0,
      "time_col_index": 4,
      "node_input_mappings": [
       {
        "channel_set_index": -1,
        "channel_type": 4,
        "time_col_index": 2
       },
       {
        "channel_set_index": -1,
        "channel_type": 4,
        "time_col_index": 3
       },
       {
        "channel_set_index": -1,
        "channel_type": 4,
        "time_col_index": 4
       },
       {
        "channel_set_index": 0,
        "channel_type": 6,
        "time_col_index": 4
       },
       {
        "channel_set_index": 0,
        "channel_type": 6,
        "time_col_index": 4
       }
      ]
     }
    ],
    [
     {
      "node_input_cache": [
       [
        0.0,
        0.0,
        0.0
       ],
       [
        0.0,
        0.0,
        0.0,
        0.0,
        0.0
       ],
       [
        0.0,
        0.0,
        0.0,
        0.0,
        0.0
       ]
      ],
      "bp_net": {
       "state": {
        "config": {
         "learning_rate": 0.25,
         "momentum": 0.1,
         "structure": [
          13,
          5,
          5,
          5
         ],
         "disable_bias": false
        },
        "calculated_error_latest": -1.0,
        "track_history": true,
        "weights": [
         [
          [
           0.7949999999999999,
           0.77,
           -0.42500000000000004,
           0.401,
           0.5249999999999999
          ],
          [
           -0.119,
           0.613,
           -0.26,
           -0.09599999999999997,
           0.77
          ],
          [
           0.268,
           -0.6950000000000001,
           0.762,
           -0.982,
           -0.731
          ],
          [
           0.43799999999999994,
           -0.5609999999999999,
           -0.511,
           0.389,
           0.6910000000000001
          ],
          [
           0.4950000000000001,
           0.679,
           0.385,
           0.28800000000000003,
           -0.772
          ],
          [
           0.01200000000000001,
           -0.33299999999999996,
           0.45999999999999996,
           0.010000000000000009,
           -0.81
          ],
          [
           -0.6699999999999999,
           0.937,
           -0.794,
           -0.915,
           0.0040000000000000036
          ],
          [
           0.264,
           -0.08899999999999997,
           0.3580000000000001,
           -0.871,
           0.4019999999999999
          ],
          [
           0.8839999999999999,
           -0.15500000000000003,
           -0.08099999999999996,
           -0.44099999999999995,
           -0.43700000000000006
          ],
          [
           -0.11299999999999999,
           -0.08499999999999996,
           0.756,
           -0.32099999999999995,
           0.7410000000000001
          ],
          [
           0.472,
           -0.969,
           -0.399,
           -0.062000000000000055,
           -0.737
          ],
          [
           -0.0040000000000000036,
           -0.40800000000000003,
           -0.789,
           0.040999999999999925,
           -0.871
          ],
          [
           0.2609999999999999,
           0.1359999999999999,
           0.2310000000000001,
           0.8380000000000001,
           0.5189999999999999
          ],
          [
           -0.79,
           0.42399999999999993,
           -0.943,
           -0.05800000000000005,
           0.4059999999999999
          ]
         ],
         [
          [
           0.794,
           0.8260000000000001,
           0.97,
           0.74,
           0.44199999999999995
          ],
          [
           -0.19799999999999995,
           0.532,
           0.8580000000000001,
           -0.33399999999999996,
           -0.522
          ],
          [
           0.9590000000000001,
           -0.983,
           0.33099999999999996,
           -0.399,
           -0.926
          ],
          [
           0.9470000000000001,
           -0.91,
           0.20500000000000007,
           -0.45999999999999996,
           0.536
          ],
          [
           -0.362,
           0.18300000000000005,
           -0.544,
           0.04600000000000004,
           -0.594
          ],
          [
           0.875,
           0.683,
           0.30299999999999994,
           -0.20599999999999996,
           -0.479
          ]
         ],
         [
          [
           -0.19499999999999995,
           -0.758,
           -0.991,
           0.10699999999999998,
           -0.371
          ],
          [
           0.835,
           0.792,
           -0.33699999999999997,
           0.5589999999999999,
           -0.06799999999999995
          ],
          [
           -0.829,
           0.478,
           -0.399,
           0.9079999999999999,
           -0.491
          ],
          [
           0.42199999999999993,
           0.2849999999999999,
           0.825,
           0.4159999999999999,
           -0.20299999999999996
          ],
          [
           0.599,
           -0.24,
           -0.516,
           -0.6859999999999999,
           0.8520000000000001
          ],
          [
           -0.922,
           0.8280000000000001,
           -0.591,
           -0.41200000000000003,
           0.974
          ]
         ]
        ],
        "last_changes": [
         [
          [
           0.0,
           0.0,
           0.0,
           0.0,
           0.0
          ],
          [
           0.0,
           0.0,
           0.0,
           0.0,
           0.0
          ],
          [
           0.0,
           0.0,
           0.0,
           0.0,
           0.0
          ],
          [
           0.0,
           0.0,
           0.0,
           0.0,
           0.0
          ],
          [
           0.0,
           0.0,
           0.0,
           0.0,
           0.0
          ],
          [
           0.0,
           0.0,
           0.0,
           0.0,
           0.0
          ],
          [
           0.0,
           0.0,
           0.0,
           0.0,
           0.0
          ],
          [
           0.0,
           0.0,
           0.0,
           0.0,
           0.0
          ],
          [
           0.0,
           0.0,
           0.0,
           0.0,
           0.0
          ],
          [
           0.0,
           0.0,
           0.0,
           0.0,
           0.0
          ],
          [
           0.0,
           0.0,
           0.0,
           0.0,
           0.0
          ],
          [
           0.0,
           0.0,
           0.0,
           0.0,
           0.0
          ],
          [
           0.0,
           0.0,
           0.0,
           0.0,
           0.0
          ],
          [
           0.0,
           0.0,
           0.0,
           0.0,
           0.0
          ]
         ],
         [
          [
           0.0,
           0.0,
           0.0,
           0.0,
           0.0
          ],
          [
           0.0,
           0.0,
           0.0,
           0.0,
           0.0
          ],
          [
           0.0,
           0.0,
           0.0,
           0.0,
           0.0
          ],
          [
           0.0,
           0.0,
           0.0,
           0.0,
           0.0
          ],
          [
           0.0,
           0.0,
           0.0,
           0.0,
           0.0
          ],
          [
           0.0,
           0.0,
           0.0,
           0.0,
           0.0
          ]
         ],
         [
          [
           0.0,
           0.0,
           0.0,
           0.0,
           0.0
          ],
          [
           0.0,
           0.0,
           0.0,
           0.0,
           0.0
          ],
          [
           0.0,
           0.0,
           0.0,
           0.0,
           0.0
          ],
          [
           0.0,
           0.0,
           0.0,
           0.0,
           0.0
          ],
          [
           0.0,
           0.0,
           0.0,
           0.0,
           0.0
          ],
          [
           0.0,
           0.0,
           0.0,
           0.0,
           0.0
          ]
         ]
        ],
        "activation_nodes": [
         [
          1.0,
          1.0,
          1.0,
          1.0,
          1.0,
          1.0,
          1.0,
          1.0,
          1.0,
          1.0,
          1.0,
          1.0,
          1.0,
          1.0
         ],
         [
          1.0,
          1.0,
          1.0,
          1.0,
          1.0,
          1.0
         ],
         [
          1.0,
          1.0,
          1.0,
          1.0,
          1.0,
          1.0
         ],
         [
          1.0,
          1.0,
          1.0,
          1.0,
          1.0
         ]
        ],
        "deltas": [
         [
          0.0,
          0.0,
          0.0,
          0.0,
          0.0,
          0.0,
          0.0,
          0.0,
          0.0,
          0.0,
          0.0,
          0.0,
          0.0
         ],
         [
          0.0,
          0.0,
          0.0,
          0.0,
          0.0
         ],
         [
          0.0,
          0.0,
          0.0,
          0.0,
          0.0
         ],
         [
          0.0,
          0.0,
          0.0,
          0.0,
          0.0
         ]
        ],
        "input_deltas": [
         0.0,
         0.0,
         0.0,
         0.0,
         0.0,
         0.0,
         0.0,
         0.0,
         0.0,
         0.0,
         0.0,
         0.0,
         0.0
        ],
        "calculated_error_history": []
       }
      },
      "rnn_config": {
       "learning_rate": 0.25,
       "momentum": 0.1,
       "structure_hidden_laters": [
        5,
        5
       ],
       "qty_states_in": 3,
       "qty_states_hidden_out": 5,
       "qty_states_out": 4,
       "qty_time_cols": 5,
       "qty_lpfc_layers": 3,
       "qty_hidden_laters": 2,
       "qty_time_cols_neighbor_inputs": 2,
       "qty_recent_memory": 2
      },
      "channel_set_index": 0,
      "channel_type": 1,
      "time_col_index": 0,
      "node_input_mappings": [
       {
        "channel_set_index": -1,
        "channel_type": 4,
        "time_col_index": 0
       },
       {
        "channel_set_index": 0,
        "channel_type": 6,
        "time_col_index": 0
       },
       {
        "channel_set_index": 0,
        "channel_type": 6,
        "time_col_index": 0
       }
      ]
     },
     {
      "node_input_cache": [
       [
        0.0,
        0.0,
        0.0,
        0.0,
        0.0
       ],
       [
        0.0,
        0.0,
        0.0
       ],
       [
        0.0,
        0.0,
        0.0,
        0.0,
        0.0
       ],
       [
        0.0,
        0.0,
        0.0,
        0.0,
        0.0
       ]
      ],
      "bp_net": {
       "state": {
        "config": {
         "learning_rate": 0.25,
         "momentum": 0.1,
         "structure": [
          18,
          5,
          5,
          5
         ],
         "disable_bias": false
        },
        "calculated_error_latest": -1.0,
        "track_history": true,
        "weights": [
         [
          [
           -0.19799999999999995,
           -0.04800000000000004,
           0.534,
           0.476,
           0.006000000000000005
          ],
          [
           -0.18400000000000005,
           0.875,
           0.1459999999999999,
           -0.471,
           0.883
          ],
          [
           -0.129,
           0.2370000000000001,
           0.8160000000000001,
           0.956,
           -0.821
          ],
          [
           0.819,
           -0.376,
           0.9359999999999999,
           0.12200000000000011,
           0.19799999999999995
          ],
          [
           0.15700000000000003,
           0.41900000000000004,
           -0.962,
           -0.15800000000000003,
           0.20500000000000007
          ],
          [
           -0.5640000000000001,
           0.43199999999999994,
           -0.9359999999999999,
           0.7090000000000001,
           0.062000000000000055
          ],
          [
           0.42100000000000004,
           -0.128,
           -0.46399999999999997,
           0.681,
           -0.804
          ],
          [
           -0.6990000000000001,
           -0.30100000000000005,
           -0.871,
           -0.08699999999999997,
           0.17199999999999993
          ],
          [
           -0.685,
           -0.266,
           -0.612,
           -0.247,
           0.30699999999999994
          ],
          [
           -0.594,
           -0.56,
           -0.834,
           0.050000000000000044,
           -0.348
          ],
          [
           0.546,
           0.0129999999999999,
           -0.909,
           -0.951,
           0.4179999999999999
          ],
          [
           0.17900000000000005,
           0.10000000000000009,
           -0.909,
           0.5529999999999999,
           0.010000000000000009
          ],
          [
           0.474,
           -0.18200000000000005,
           0.7170000000000001,
           0.17999999999999994,
           -0.7110000000000001
          ],
          [
           -0.505,
           -0.635,
           -0.716,
           0.02200000000000002,
           0.8480000000000001
          ],
          [
           0.2490000000000001,
           0.7509999999999999,
           -0.363,
           -0.8240000000000001,
           -0.991
          ],
          [
           -0.651,
           -0.08699999999999997,
           0.08299999999999996,
           -0.902,
           0.538
          ],
          [
           -0.14300000000000002,
           0.512,
           -0.05400000000000005,
           -0.44799999999999995,
           -0.926
          ],
          [
           -0.891,
           0.8979999999999999,
           -0.29900000000000004,
           -0.18400000000000005,
           0.8720000000000001
          ],
          [
           0.72,
           -0.262,
           -0.821,
           0.6890000000000001,
           -0.791
          ]
         ],
         [
          [
           0.815,
           0.4750000000000001,
           0.19399999999999995,
           -0.866,
           -0.10199999999999998
          ],
          [
           0.32299999999999995,
           -0.765,
           -0.914,
           -0.565,
           0.04800000000000004
          ],
          [
           -0.22999999999999998,
           0.784,
           0.17300000000000004,
           0.675,
           0.375
          ],
          [
           -0.362,
           -0.782,
           -0.6819999999999999,
           -0.5740000000000001,
           0.44799999999999995
          ],
          [
           0.748,
           -0.829,
           0.726,
           0.522,
           0.2410000000000001
          ],
          [
           -0.14900000000000002,
           -0.29000000000000004,
           -0.397,
           -0.736,
           -0.5920000000000001
          ]
         ],
         [
          [
           -0.02100000000000002,
           -0.5820000000000001,
           0.4970000000000001,
           -0.241,
           0.9119999999999999
          ],
          [
           -0.051000000000000045,
           -0.918,
           0.349,
           0.18900000000000006,
           -0.124
          ],
          [
           0.978,
           0.976,
           -0.42400000000000004,
           0.7270000000000001,
           -0.844
          ],
          [
           0.09699999999999998,
           -0.6799999999999999,
           0.7,
           -0.579,
           0.4119999999999999
          ],
          [
           -0.9410000000000001,
           -0.241,
           -0.883,
           -0.754,
           0.879
          ],
          [
           -0.714,
           0.5009999999999999,
           -0.565,
           0.7949999999999999,
           0.8400000000000001
          ]
         ]
        ],
        "last_changes": [
         [
          [
           0.0,
           0.0,
           0.0,
           0.0,
           0.0
          ],
          [
           0.0,
           0.0,
           0.0,
           0.0,
           0.0
          ],
          [
           0.0,
           0.0,
           0.0,
           0.0,
           0.0
          ],
          [
           0.0,
           0.0,
           0.0,
           0.0,
           0.0
          ],
          [
           0.0,
           0.0,
           0.0,
           0.0,
           0.0
          ],
          [
           0.0,
           0.0,
           0.0,
           0.0,
           0.0
          ],
          [
           0.0,
           0.0,
           0.0,
           0.0,
           0.0
          ],
          [
           0.0,
           0.0,
           0.0,
           0.0,
           0.0
          ],
          [
           0.0,
           0.0,
           0.0,
           0.0,
           0.0
          ],
          [
           0.0,
           0.0,
           0.0,
           0.0,
           0.0
          ],
          [
           0.0,
           0.0,
           0.0,
           0.0,
           0.0
          ],
          [
           0.0,
           0.0,
           0.0,
           0.0,
           0.0
          ],
          [
           0.0,
           0.0,
           0.0,
           0.0,
           0.0
          ],
          [
           0.0,
           0.0,
           0.0,
           0.0,
           0.0
          ],
          [
           0.0,
           0.0,
           0.0,
           0.0,
           0.0
          ],
          [
           0.0,
           0.0,
           0.0,
           0.0,
           0.0
          ],
          [
           0.0,
           0.0,
           0.0,
           0.0,
           0.0
          ],
          [
           0.0,
           0.0,
           0.0,
           0.0,
           0.0
          ],
          [
           0.0,
           0.0,
           0.0,
           0.0,
           0.0
          ]
         ],
         [
          [
           0.0,
           0.0,
           0.0,
           0.0,
           0.0
          ],
          [
           0.0,
           0.0,
           0.0,
           0.0,
           0.0
          ],
          [
           0.0,
           0.0,
           0.0,
           0.0,
           0.0
          ],
          [
           0.0,
           0.0,
           0.0,
           0.0,
           0.0
          ],
          [
           0.0,
           0.0,
           0.0,
           0.0,
           0.0
          ],
          [
           0.0,
           0.0,
           0.0,
           0.0,
           0.0
          ]
         ],
         [
          [
           0.0,
           0.0,
           0.0,
           0.0,
           0.0
          ],
          [
           0.0,
           0.0,
           0.0,
           0.0,
           0.0
          ],
          [
           0.0,
           0.0,
           0.0,
           0.0,
           0.0
          ],
          [
           0.0,
           0.0,
           0.0,
           0.0,
           0.0
          ],
          [
           0.0,
           0.0,
           0.0,
           0.0,
           0.0
          ],
          [
           0.0,
           0.0,
           0.0,
           0.0,
           0.0
          ]
         ]
        ],
        "activation_nodes": [
         [
          1.0,
          1.0,
          1.0,
          1.0,
          1.0,
          1.0,
          1.0,
          1.0,
          1.0,
          1.0,
          1.0,
          1.0,
          1.0,
          1.0,
          1.0,
          1.0,
          1.0,
          1.0,
          1.0
         ],
         [
          1.0,
          1.0,
          1.0,
          1.0,
          1.0,
          1.0
         ],
         [
          1.0,
          1.0,
          1.0,
          1.0,
          1.0,
          1.0
         ],
         [
          1.0,
          1.0,
          1.0,
          1.0,
          1.0
         ]
        ],
        "deltas": [
         [
          0.0,
          0.0,
          0.0,
          0.0,
          0.0,
          0.0,
          0.0,
          0.0,
          0.0,
          0.0,
          0.0,
          0.0,
          0.0,
          0.0,
          0.0,
          0.0,
          0.0,
          0.0
         ],
         [
          0.0,
          0.0,
          0.0,
          0.0,
          0.0
         ],
         [
          0.0,
          0.0,
          0.0,
          0.0,
          0.0
         ],
         [
          0.0,
          0.0,
          0.0,
          0.0,
          0.0
         ]
        ],
        "input_deltas": [
         0.0,
         0.0,
         0.0,
         0.0,
         0.0,
         0.0,
         0.0,
         0.0,
         0.0,
         0.0,
         0.0,
         0.0,
         0.0,
         0.0,
         0.0,
         0.0,
         0.0,
         0.0
        ],
        "calculated_error_history": []
       }
      },
      "rnn_config": {
       "learning_rate": 0.25,
       "momentum": 0.1,
       "structure_hidden_laters": [
        5,
        5
       ],
       "qty_states_in": 3,
       "qty_states_hidden_out": 5,
       "qty_states_out": 4,
       "qty_time_cols": 5,
       "qty_lpfc_layers": 3,
       "qty_hidden_laters": 2,
       "qty_time_cols_neighbor_inputs": 2,
       "qty_recent_memory": 2
      },
      "channel_set_index": 0,
      "channel_type": 1,
      "time_col_index": 1,
      "node_input_mappings": [
       {
        "channel_set_index": 0,
        "channel_type": 1,
        "time_col_index": 0
       },
       {
        "channel_set_index": -1,
        "channel_type": 4,
        "time_col_index": 1
       },
       {
        "channel_set_index": 0,
        "channel_type": 6,
        "time_col_index": 1
       },
       {
        "channel_set_index": 0,
        "channel_type": 6,
        "time_col_index": 1
       }
      ]
     },
     {
      "node_input_cache": [
       [
        0.0,
        0.0,
        0.0,
        0.0,
        0.0
       ],
       [
        0.0,
        0.0,
        0.0,
        0.0,
        0.0
       ],
       [
        0.0,
        0.0,
        0.0
       ],
       [
        0.0,
        0.0,
        0.0,
        0.0,
        0.0
       ],
       [
        0.0,
        0.0,
        0.0,
        0.0,
        0.0
       ]
      ],
      "bp_net": {
       "state": {
        "config": {
         "learning_rate": 0.25,
         "momentum": 0.1,
         "structure": [
          23,
          5,
          5,
          5
         ],
         "disable_bias": false
        },
        "calculated_error_latest": -1.0,
        "track_history": true,
        "weights": [
         [
          [
           0.6080000000000001,
           0.02400000000000002,
           -0.532,
           -0.239,
           -0.15300000000000002
          ],
          [
           -0.42200000000000004,
           -0.18600000000000005,
           0.403,
           -0.978,
           0.254
          ],
          [
           -0.22999999999999998,
           -0.16800000000000004,
           -0.478,
           0.32600000000000007,
           0.1279999999999999
          ],
          [
           -0.858,
           0.369,
           0.0020000000000000018,
           0.18599999999999994,
           0.956
          ],
          [
           0.1459999999999999,
           -0.04700000000000004,
           0.688,
           -0.07299999999999995,
           0.16500000000000004
          ],
          [
           0.631,
           -0.356,
           -0.6619999999999999,
           -0.86,
           0.9910000000000001
          ],
          [
           -0.30100000000000005,
           0.3320000000000001,
           -0.19299999999999995,
           0.4890000000000001,
           0.2390000000000001
          ],
          [
           0.8340000000000001,
           -0.263,
           -0.899,
           0.7310000000000001,
           -0.22599999999999998
          ],
          [
           0.43700000000000006,
           -0.644,
           -0.126,
           0.1499999999999999,
           0.6299999999999999
          ],
          [
           0.933,
           0.579,
           0.31800000000000006,
           -0.669,
           -0.07099999999999995
          ],
          [
           0.052999999999999936,
           0.7070000000000001,
           -0.5720000000000001,
           0.3340000000000001,
           0.812
          ],
          [
           0.17100000000000004,
           -0.898,
           -0.6990000000000001,
           0.7669999999999999,
           0.716
          ],
          [
           -0.051000000000000045,
           0.5900000000000001,
           0.21900000000000008,
           -0.403,
           -0.133
          ],
          [
           0.1519999999999999,
           0.5149999999999999,
           -0.382,
           -0.02100000000000002,
           0.863
          ],
          [
           -0.484,
           0.3460000000000001,
           0.593,
           -0.42400000000000004,
           -0.11599999999999999
          ],
          [
           -0.389,
           0.020999999999999908,
           -0.31599999999999995,
           -0.018000000000000016,
           0.8480000000000001
          ],
          [
           -0.6890000000000001,
           -0.501,
           -0.32699999999999996,
           -0.062000000000000055,
           0.391
          ],
          [
           -0.025000000000000022,
           0.651,
           0.9830000000000001,
           0.4159999999999999,
           -0.727
          ],
          [
           -0.5860000000000001,
           0.8560000000000001,
           -0.507,
           -0.16400000000000003,
           -0.775
          ],
          [
           0.647,
           0.19700000000000006,
           0.909,
           -0.953,
           0.8
          ],
          [
           -0.374,
           -0.776,
           -0.42300000000000004,
           0.8939999999999999,
           0.351
          ],
          [
           0.6739999999999999,
           -0.878,
           0.7070000000000001,
           0.47,
           0.2829999999999999
          ],
          [
           -0.624,
           -0.8180000000000001,
           -0.492,
           -0.745,
           -0.469
          ],
          [
           0.6000000000000001,
           -0.632,
           0.5469999999999999,
           -0.804,
           0.956
          ]
         ],
         [
          [
           -0.10199999999999998,
           -0.601,
           -0.03400000000000003,
           0.833,
           -0.7030000000000001
          ],
          [
           0.8140000000000001,
           -0.398,
           0.1060000000000001,
           -0.688,
           0.07200000000000006
          ],
          [
           0.796,
           0.30000000000000004,
           0.7270000000000001,
           0.7170000000000001,
           -0.97
          ],
          [
           0.9730000000000001,
           -0.906,
           0.2729999999999999,
           -0.601,
           -0.702
          ],
          [
           0.43700000000000006,
           -0.133,
           0.7110000000000001,
           -0.696,
           0.133
          ],
          [
           0.2909999999999999,
           0.393,
           0.706,
           0.32299999999999995,
           -0.18700000000000006
          ]
         ],
         [
          [
           -0.949,
           0.33000000000000007,
           0.724,
           -0.671,
           -0.6699999999999999
          ],
          [
           -0.16600000000000004,
           0.724,
           -0.991,
           0.365,
           -0.135
          ],
          [
           -0.812,
           0.8049999999999999,
           0.07000000000000006,
           -0.924,
           -0.37
          ],
          [
           -0.374,
           -0.962,
           -0.949,
           -0.399,
           0.8340000000000001
          ],
          [
           0.663,
           0.10400000000000009,
           -0.376,
           0.518,
           0.976
          ],
          [
           0.8859999999999999,
           0.835,
           0.31200000000000006,
           -0.375,
           -0.273
          ]
         ]
        ],
        "last_changes": [
         [
          [
           0.0,
           0.0,
           0.0,
           0.0,
           0.0
          ],
          [
           0.0,
           0.0,
           0.0,
           0.0,
           0.0
          ],
          [
           0.0,
           0.0,
           0.0,
           0.0,
           0.0
          ],
          [
           0.0,
           0.0,
           0.0,
           0.0,
           0.0
          ],
          [
           0.0,
           0.0,
           0.0,
           0.0,
           0.0
          ],
          [
           0.0,
           0.0,
           0.0,
           0.0,
           0.0
          ],
          [
           0.0,
           0.0,
           0.0,
           0.0,
           0.0
          ],
          [
           0.0,
           0.0,
           0.0,
           0.0,
           0.0
          ],
          [
           0.0,
           0.0,
           0.0,
           0.0,
           0.0
          ],
          [
           0.0,
           0.0,
           0.0,
           0.0,
           0.0
          ],
          [
           0.0,
           0.0,
           0.0,
           0.0,
           0.0
          ],
          [
           0.0,
           0.0,
           0.0,
           0.0,
           0.0
          ],
          [
           0.0,
           0.0,
           0.0,
           0.0,
           0.0
          ],
          [
           0.0,
           0.0,
           0.0,
           0.0,
           0.0
          ],
          [
           0.0,
           0.0,
           0.0,
           0.0,
           0.0
          ],
          [
           0.0,
           0.0,
           0.0,
           0.0,
           0.0
          ],
          [
           0.0,
           0.0,
           0.0,
           0.0,
           0.0
          ],
          [
           0.0,
           0.0,
           0.0,
           0.0,
           0.0
          ],
          [
           0.0,
           0.0,
           0.0,
           0.0,
           0.0
          ],
          [
           0.0,
           0.0,
           0.0,
           0.0,
           0.0
          ],
          [
           0.0,
           0.0,
           0.0,
           0.0,
           0.0
          ],
          [
           0.0,
           0.0,
           0.0,
           0.0,
           0.0
          ],
          [
           0.0,
           0.0,
           0.0,
           0.0,
           0.0
          ],
          [
           0.0,
           0.0,
           0.0,
           0.0,
           0.0
          ]
         ],
         [
          [
           0.0,
           0.0,
           0.0,
           0.0,
           0.0
          ],
          [
           0.0,
           0.0,
           0.0,
           0.0,
           0.0
          ],
          [
           0.0,
           0.0,
           0.0,
           0.0,
           0.0
          ],
          [
           0.0,
           0.0,
           0.0,
           0.0,
           0.0
          ],
          [
           0.0,
           0.0,
           0.0,
           0.0,
           0.0
          ],
          [
           0.0,
           0.0,
           0.0,
           0.0,
           0.0
          ]
         ],
         [
          [
           0.0,
           0.0,
           0.0,
           0.0,
           0.0
          ],
          [
           0.0,
           0.0,
           0.0,
           0.0,
           0.0
          ],
          [
           0.0,
           0.0,
           0.0,
           0.0,
           0.0
          ],
          [
           0.0,
           0.0,
           0.0,
           0.0,
           0.0
          ],
          [
           0.0,
           0.0,
           0.0,
           0.0,
           0.0
          ],
          [
           0.0,
           0.0,
           0.0,
           0.0,
           0.0
          ]
         ]
        ],
        "activation_nodes": [
         [
          1.0,
          1.0,
          1.0,
          1.0,
          1.0,
          1.0,
          1.0,
          1.0,
          1.0,
          1.0,
          1.0,
          1.0,
          1.0,
          1.0,
          1.0,
          1.0,
          1.0,
          1.0,
          1.0,
          1.0,
          1.0,
          1.0,
          1.0,
          1.0
         ],
         [
          1.0,
          1.0,
          1.0,
          1.0,
          1.0,
          1.0
         ],
         [
          1.0,
          1.0,
          1.0,
          1.0,
          1.0,
          1.0
         ],
         [
          1.0,
          1.0,
          1.0,
          1.0,
          1.0
         ]
        ],
        "deltas": [
         [
          0.0,
          0.0,
          0.0,
          0.0,
          0.0,
          0.0,
          0.0,
          0.0,
          0.0,
          0.0,
          0.0,
          0.0,
          0.0,
          0.0,
          0.0,
          0.0,
          0.0,
          0.0,
          0.0,
          0.0,
          0.0,
          0.0,
          0.0
         ],
         [
          0.0,
          0.0,
          0.0,
          0.0,
          0.0
         ],
         [
          0.0,
          0.0,
          0.0,
          0.0,
          0.0
         ],
         [
          0.0,
          0.0,
          0.0,
          0.0,
          0.0
         ]
        ],
        "input_deltas": [
         0.0,
         0.0,
         0.0,
         0.0,
         0.0,
         0.0,
         0.0,
         0.0,
         0.0,
         0.0,
         0.0,
         0.0,
         0.0,
         0.0,
         0.0,
         0.0,
         0.0,
         0.0,
         0.0,
         0.0,
         0.0,
         0.0,
         0.0
        ],
        "calculated_error_history": []
       }
      },
      "rnn_config": {
       "learning_rate": 0.25,
       "momentum": 0.1,
       "structure_hidden_laters": [
        5,
        5
       ],
       "qty_states_in": 3,
       "qty_states_hidden_out": 5,
       "qty_states_out": 4,
       "qty_time_cols": 5,
       "qty_lpfc_layers": 3,
       "qty_hidden_laters": 2,
       "qty_time_cols_neighbor_inputs": 2,
       "qty_recent_memory": 2
      },
      "channel_set_index": 0,
      "channel_type": 1,
      "time_col_index": 2,
      "node_input_mappings": [
       {
        "channel_set_index": 0,
        "channel_type": 1,
        "time_col_index": 0
       },
       {
        "channel_set_index": 0,
        "channel_type": 1,
        "time_col_index": 1
       },
       {
        "channel_set_index": -1,
        "channel_type": 4,
        "time_col_index": 2
       },
       {
        "channel_set_index": 0,
        "channel_type": 6,
        "time_col_index": 2
       },
       {
        "channel_set_index": 0,
        "channel_type": 6,
        "time_col_index": 2
       }
      ]
     },
     {
      "node_input_cache": [
       [
        0.0,
        0.0,
        0.0,
        0.0,
        0.0
       ],
       [
        0.0,
        0.0,
        0.0,
        0.0,
        0.0
       ],
       [
        0.0,
        0.0,
        0.0
       ],
       [
        0.0,
        0.0,
        0.0,
        0.0,
        0.0
       ],
       [
        0.0,
        0.0,
        0.0,
        0.0,
        0.0
       ]
      ],
      "bp_net": {
       "state": {
        "config": {
         "learning_rate": 0.25,
         "momentum": 0.1,
         "structure": [
          23,
          5,
          5,
          5
         ],
         "disable_bias": false
        },
        "calculated_error_latest": -1.0,
        "track_history": true,
        "weights": [
         [
          [
           0.5680000000000001,
           0.31400000000000006,
           0.2809999999999999,
           0.18300000000000005,
           0.827
          ],
          [
           -0.841,
           -0.401,
           0.869,
           -0.649,
           0.20100000000000007
          ],
          [
           -0.482,
           -0.24,
           -0.848,
           0.9570000000000001,
           0.556
          ],
          [
           0.7869999999999999,
           0.43399999999999994,
           -0.30900000000000005,
           0.2869999999999999,
           -0.651
          ],
          [
           0.5780000000000001,
           -0.742,
           -0.123,
           0.8320000000000001,
           -0.725
          ],
          [
           -0.392,
           0.8260000000000001,
           0.597,
           0.9790000000000001,
           -0.618
          ],
          [
           -0.482,
           -0.49,
           -0.848,
           -0.42900000000000005,
           0.8360000000000001
          ],
          [
           0.687,
           0.7889999999999999,
           -0.612,
           -0.241,
           0.268
          ],
          [
           0.16999999999999993,
           0.42300000000000004,
           0.569,
           -0.17200000000000004,
           0.8600000000000001
          ],
          [
           0.7270000000000001,
           -0.519,
           -0.17700000000000005,
           -0.6619999999999999,
